#ifndef WEIGHTS_H_
#define WEIGHTS_H_

const float weights1[INPUT_SIZE][HIDDEN_SIZE] = {-0.312697, -0.156136, -0.010027, 0.361441, -0.443472, -0.170180, -0.249550, -0.085671, -0.403777, -0.101842, -0.347796, -0.170603, 0.357867, 0.432600, 0.299682, 0.457789, -0.399230, -0.441415, 0.191743, 0.062843, 0.257067, -0.306049, 0.346197, -0.190426, 0.043926, -0.322640, -0.378725, 0.391323, -0.306558, -0.214939, 0.340576, 0.115340, 0.411424, -0.095782, -0.156520, 0.108647, -0.441838, 0.024810, 0.270412, 0.233345, -0.279615, 0.000643, 0.078109, -0.407264, 0.075505, 0.251486, 0.386160, -0.422479, 0.197582, 0.360163, -0.254046, -0.012505, -0.026182, -0.250899, -0.484746, 0.162352, 0.457009, -0.239266, -0.166156, -0.170405, -0.337491, 0.301350, 0.360506, -0.232140, 0.370687, 0.105924, -0.262640, -0.438936, 0.296312, -0.474088, -0.377638, 0.022151, -0.374632, 0.025930, 0.248773, -0.372331, -0.090891, -0.128799, 0.164857, -0.335768, 0.074344, 0.374049, 0.037988, -0.070627, 0.496444, -0.204572, 0.096558, -0.192196, -0.300177, 0.213587, 0.381970, 0.041128, 0.159383, -0.150480, 0.413765, -0.178811, -0.351927, 0.220736, 0.429723, 0.150994, 0.112416, 0.198373, -0.450308, 0.065425, -0.038892, -0.468243, -0.104650, 0.186463, -0.152584, 0.057976, -0.217465, 0.226047, -0.291445, 0.498268, 0.280075, 0.126087, -0.466322, -0.377807, -0.321437, 0.043060, -0.185053, 0.242369, 0.423750, 0.323000, 0.320088, 0.074714, -0.217132, 0.288232, -0.229446, 0.107272, 0.402487, -0.081560, -0.486085, 0.074989, -0.210986, 0.327334, 0.212213, 0.046696, -0.094921, 0.454553, -0.016431, 0.056005, -0.172711, 0.167544, -0.256522, -0.332553, 0.427349, -0.335364, 0.480253, 0.374081, -0.317156, -0.486200, 0.164780, -0.453726, -0.091472, 0.104726, 0.121195, -0.369872, -0.230164, -0.259308, -0.280800, -0.057890, -0.443207, -0.015257, -0.242864, 0.406463, -0.410336, -0.498092, 0.192206, 0.355356, -0.297921, -0.329036, 0.307146, 0.494909, -0.388500, 0.392374, 0.056839, -0.213675, -0.234503, -0.159663, -0.451344, 0.044370, -0.406210, 0.160529, 0.318578, -0.121494, 0.458131, 0.397998, 0.409994, -0.335898, 0.371635, 0.371414, 0.433997, -0.111217, -0.272796, 0.377812, 0.227322, -0.345243, -0.044699, -0.073142, 0.326735, 0.428632, 0.110393, -0.144450, 0.172059, -0.187747, 0.319351, 0.065763, 0.094668, 0.470900, -0.426000, 0.220155, -0.275992, 0.016683, 0.138518, -0.415613, 0.380168, 0.338846, 0.127293, -0.439372, -0.267729, -0.363151, 0.325405, 0.076419, -0.137631, 0.354612, -0.460327, 0.402964, -0.405165, -0.234225, -0.054348, 0.327827, 0.377611, -0.495816, -0.191442, 0.288766, -0.266396, 0.057143, 0.049665, 0.108907, -0.257402, 0.144246, -0.271040, 0.461242, 0.058231, 0.297114, 0.163381, -0.319798, 0.244526, -0.385167, 0.376618, -0.328184, -0.101272, -0.047282, 0.217087, 0.077754, -0.196576, 0.167913, -0.368871, -0.167853, 0.092920, -0.095559, -0.421057, -0.413495, 0.352155, -0.421695, -0.342311, 0.109299, -0.185488, 0.054807, -0.426731, 0.042450, -0.157242, 0.125912, 0.421492, 0.140427, -0.050755, 0.447808, 0.299562, -0.117569, -0.331908, -0.384841, 0.166768, 0.219600, 0.070105, 0.232026, 0.125756, 0.486790, -0.174251, -0.179696, 0.075332, -0.374542, 0.003752, 0.336317, -0.194682, 0.209593, -0.299747, 0.380012, -0.323384, 0.372304, -0.283720, -0.018101, 0.444310, -0.202019, -0.411535, 0.446068, 0.263555, 0.091085, -0.157274, 0.135243, 0.009376, -0.111980, -0.079472, 0.452649, 0.378955, -0.430861, -0.034272, -0.061005, 0.298836, -0.373971, 0.171797, -0.160090, 0.214595, 0.252263, 0.314373, -0.286152, -0.310444, -0.406007, -0.494999, -0.369346, 0.143435, 0.077442, 0.298508, 0.426299, -0.254304, 0.419378, 0.314633, 0.217047, -0.170834, -0.126458, 0.214334, 0.468593, -0.175575, -0.048101, -0.172475, -0.320584, -0.154924, 0.127414, -0.392556, -0.123953, -0.038332, -0.319526, -0.176615, -0.137739, -0.178226, 0.073446, -0.428046, -0.041600, -0.083792, 0.049511, -0.309875, -0.066260, 0.075733, -0.264624, -0.450898, -0.301172, -0.114820, 0.427833, -0.235837, -0.192218, 0.379807, -0.055216, -0.265806, -0.263650, 0.219743, 0.437690, -0.129629, 0.499226, 0.493771, -0.284434, 0.197318, 0.037710, 0.258509, 0.302483, -0.427106, -0.276130, -0.325493, 0.301137, -0.106352, -0.416552, 0.230066, 0.030954, -0.087938, 0.380014, 0.381398, -0.306865, 0.479775, -0.432882, -0.136596, 0.105154, 0.477195, -0.248772, 0.232273, 0.420835, 0.242678, 0.351505, 0.358344, -0.467161, 0.290212, 0.128284, 0.130889, -0.117146, -0.411366, -0.284812, 0.195195, -0.122852, 0.297622, -0.427787, -0.001830, 0.421533, -0.216510, 0.111914, 0.097452, -0.204248, -0.049967, -0.296472, -0.245172, -0.122333, 0.276872, 0.004688, -0.002074, 0.344056, -0.153447, 0.137968, -0.106651, 0.346332, -0.258141, -0.013644, -0.048347, 0.106013, 0.160129, 0.176078, -0.370669, 0.249087, 0.222394, 0.401991, -0.050844, -0.220490, -0.112695, 0.052210, -0.015971, -0.213260, 0.398861, 0.112693, -0.460654, -0.290186, -0.088739, -0.261731, 0.458842, 0.173853, 0.022433, -0.026445, 0.330576, -0.049694, 0.036400, 0.292888, 0.062296, -0.167805, -0.334083, 0.140388, 0.376000, 0.477316, -0.408245, 0.119701, 0.128987, 0.247272, -0.164226, 0.338112, -0.332384, 0.338916, -0.050281, -0.431584, 0.495135, -0.390732, -0.139605, 0.175389, -0.306323, 0.168112, -0.362294, -0.243408, -0.143966, -0.313613, -0.054918, 0.178186, 0.118894, -0.471823, -0.202724, -0.203162, -0.285750, -0.180209, -0.294302, 0.037416, 0.486673, -0.341410, -0.481375, -0.256215, -0.389175, -0.332196, -0.251640, -0.410146, -0.017325, -0.349802, 0.405533, -0.010658, 0.267673, -0.498689, -0.221158, -0.268047, 0.479720, 0.353676, 0.033142, 0.138495, 0.118047, -0.280235, -0.383259, -0.317914, 0.364901, -0.323292, -0.072148, -0.188283, -0.490622, -0.497788, 0.328101, -0.160353, -0.096858, -0.018752, 0.073122, 0.230593, -0.390259, -0.028577, 0.184009, 0.168452, -0.375351, -0.125913, 0.064375, 0.123546, -0.149929, -0.320518, 0.322893, 0.272791, -0.025041, 0.262623, 0.450874, -0.486203, -0.261029, -0.318293, 0.227283, -0.076532, -0.413462, 0.023239, -0.231551, -0.440853, -0.003792, -0.437622, 0.171718, -0.385937, 0.343804, 0.493812, -0.193756, -0.045900, -0.111268, 0.069046, 0.275340, -0.233685, 0.115544, 0.200169, 0.331944, 0.216356, -0.210181, -0.011909, 0.389473, 0.446146, -0.449377, -0.149401, 0.206828, -0.215811, -0.221771, -0.457374, 0.096051, 0.227910, 0.350235, 0.137042, -0.394225, -0.449110, 0.260855, 0.269342, -0.457163, 0.157886, -0.150960, -0.262865, -0.436212, -0.149185, -0.336361, -0.304202, -0.382124, 0.432564, -0.244863, -0.022952, 0.177433, 0.114331, -0.347083, 0.388447, -0.498695, -0.355353, -0.131118, -0.374388, -0.148378, -0.296707, -0.408121, -0.295253, 0.429630, 0.097566, -0.469383, -0.367375, -0.103376, -0.375115, -0.047384, -0.395467, 0.456956, 0.127104, 0.023233, 0.110378, -0.240380, -0.336305, 0.279057, -0.018498, -0.475071, 0.067105, -0.012560, -0.290647, -0.404215, 0.054097, -0.171336, 0.101543, -0.231205, 0.280524, -0.426500, 0.237573, 0.059353, 0.190172, 0.383701, 0.187474, -0.280654, -0.224142, 0.103279, 0.295458, -0.052022, -0.182884, 0.175725, -0.142757, 0.280563, -0.390015, -0.341914, 0.087418, 0.073200, -0.000776, 0.393037, 0.201376, 0.485743, 0.109653, -0.443149, 0.441062, -0.073396, 0.486224, -0.381810, 0.457517, -0.086796, -0.307790, 0.182599, -0.146714, 0.366469, -0.161530, -0.009729, -0.182039, 0.188230, 0.461796, 0.443337, 0.458896, 0.098528, -0.081483, -0.342925, 0.178043, 0.467830, -0.499016, -0.066508, 0.062029, 0.351269, 0.236472, 0.338761, -0.020137, 0.474663, 0.368657, 0.337955, -0.276340, -0.429151, 0.343849, -0.303404, -0.178795, 0.438618, 0.251810, 0.359273, 0.165399, 0.273029, 0.215977, 0.083826, -0.276635, 0.020729, -0.493161, 0.144717, -0.183415, -0.082879, 0.063627, -0.324739, -0.355896, 0.055753, 0.042527, -0.409890, 0.199215, -0.062364, -0.326442, -0.344335, -0.141154, -0.184726, 0.395512, -0.116311, -0.371269, -0.421411, 0.290020, -0.127457, -0.117262, 0.366776, -0.012039, 0.408239, 0.395193, -0.080237, 0.050553, 0.240939, -0.243038, 0.448032, 0.237172, -0.058316, -0.476117, 0.314592, -0.308558, -0.120648, -0.040556, -0.164564, -0.316599, 0.465279, -0.462404, 0.095233, 0.194450, 0.032742, 0.375130, -0.453528, 0.090978, 0.019635, -0.211363, -0.095337, -0.044792, -0.419208, 0.410888, 0.438944, 0.464042, 0.195795, 0.301351, -0.422983, -0.202052, 0.337315, 0.399142, 0.353613, 0.231719, 0.011853, 0.336488, 0.109896, 0.241177, 0.384368, -0.183735, -0.096495, -0.475308, -0.095077, 0.295558, -0.426115, 0.199452, -0.154468, 0.487801, 0.175039, -0.112260, 0.009719, 0.103241, 0.388827, 0.338070, 0.085283, -0.157764, 0.256981, -0.035037, 0.427808, 0.417215, -0.114945, -0.342820, -0.235824, 0.214903, 0.254799, 0.239478, 0.052852, 0.299935, 0.187090, 0.068439, -0.436532, -0.329279, -0.347479, 0.399881, -0.075790, 0.217458, 0.394123, -0.328334, -0.483856, 0.166437, -0.251773, -0.175899, 0.239821, -0.185876, -0.384648, 0.048483, -0.421473, 0.315891, -0.107485, 0.439205, 0.444019, -0.178202, 0.083245, -0.020299, -0.272077, -0.436096, -0.106507, 0.238761, -0.174298, -0.396658, 0.310153, 0.317077, 0.024676, 0.113099, -0.221945, -0.429659, -0.482095, 0.124003, 0.064681, -0.266044, 0.219316, -0.297914, -0.284512, 0.278196, 0.364794, -0.278750, -0.042134, 0.401881, 0.043735, 0.463489, 0.265195, -0.372956, 0.282206, 0.289853, -0.088132, -0.039300, -0.321661, -0.202476, -0.330219, -0.216816, 0.290955, 0.413725, -0.299166, 0.075506, 0.440218, 0.357670, 0.267055, -0.399299, 0.422839, -0.380352, 0.032953, -0.492651, 0.140649, 0.137948, 0.313937, 0.460734, -0.332673, 0.455779, 0.391015, 0.263250, 0.396907, -0.166648, 0.001369, -0.334278, -0.097632, -0.091348, -0.170984, 0.153709, -0.472225, -0.368141, 0.154589, -0.258832, 0.106144, 0.050128, 0.075543, 0.023362, 0.431068, 0.237253, 0.412608, 0.492953, 0.485933, -0.391003, -0.066385, -0.346756, 0.460705, -0.067436, -0.461540, -0.237755, 0.255930, 0.485453, -0.061922, 0.268176, 0.448551, -0.284452, -0.075219, 0.088211, -0.044834, 0.231176, 0.386811, 0.349663, -0.048115, 0.490263, -0.307811, 0.183742, -0.106208, 0.366259, 0.227860, 0.382613, 0.472056, -0.433324, -0.483554, -0.315787, 0.201338, -0.401294, -0.126563, 0.283509, 0.107907, -0.315138, -0.006047, -0.077326, 0.031893, -0.474295, 0.326986, 0.274728, 0.440724, -0.097995, -0.199591, -0.478276, 0.244413, -0.032394, -0.319423, 0.070126, 0.307256, -0.043788, -0.074508, -0.288894, -0.375419, 0.079974, 0.345963, 0.371600, 0.047375, 0.459540, 0.001413, 0.201678, -0.465131, 0.092859, 0.020358, 0.464215, 0.368858, -0.028135, 0.288134, 0.408037, -0.009526, -0.411655, 0.429938, -0.284421, 0.322301, 0.132538, -0.495635, 0.370246, -0.123581, 0.168485, 0.001546, 0.045147, 0.325799, 0.454224, -0.019453, 0.312812, -0.449414, 0.064271, -0.455621, 0.143348, -0.073482, -0.325512, 0.079817, -0.277150, -0.049349, -0.311060, -0.254015, 0.164653, 0.133906, 0.020393, -0.349444, 0.170833, 0.163615, -0.276249, -0.452310, 0.372351, 0.431468, 0.081484, 0.072345, -0.209763, -0.274172, 0.231757, -0.388966, 0.495530, 0.077357, -0.430597, -0.386432, 0.263498, -0.318177, 0.086975, -0.188321, 0.306050, -0.357311, 0.065196, 0.278467, 0.317880, -0.254850, 0.443307, 0.252088, 0.215945, 0.096748, -0.389288, -0.146614, 0.254856, 0.043897, 0.335901, 0.403550, 0.147976, -0.394866, -0.117534, 0.392271, 0.287446, -0.266603, 0.261757, -0.179487, -0.297648, -0.269520, 0.323699, -0.044481, 0.487480, 0.036448, 0.054617, -0.330177, -0.209384, -0.306420, 0.231565, -0.236035, -0.381459, -0.324476, -0.405574, 0.269964, 0.491602, 0.352561, -0.363730, -0.458536, 0.400198, 0.465577, -0.146846, 0.028691, 0.307247, -0.318273, -0.088992, -0.362810, -0.239420, 0.278376, -0.366478, 0.223843, -0.211442, -0.228021, -0.381174, 0.086491, 0.238670, -0.149352, -0.377054, 0.466497, -0.496615, 0.003740, 0.116549, -0.385307, -0.268108, 0.267433, -0.457250, 0.491112, -0.190939, -0.150455, 0.333637, -0.195359, -0.305453, -0.437064, -0.030135, 0.069134, 0.024844, 0.345077, 0.406585, -0.051118, 0.156583, 0.338424, -0.336741, 0.015750, -0.191921, 0.116238, 0.162979, -0.455553, 0.478966, 0.038179, 0.041286, 0.330896, -0.333761, 0.284086, 0.090225, -0.221652, -0.333429, 0.037873, 0.145880, -0.135020, 0.141503, 0.129638, -0.420979, -0.361183, -0.292083, 0.136178, 0.473282, 0.105327, -0.236310, -0.177967, 0.431148, -0.081627, 0.420681, -0.125270, -0.128075, -0.489085, 0.363535, -0.386802, -0.410273, 0.249290, 0.347480, -0.181367, -0.411706, -0.114267, 0.466011, 0.323411, -0.345143, 0.215819, -0.301470, -0.497123, -0.425160, 0.240448, -0.334329, 0.479297, -0.453925, -0.497563, 0.115844, 0.262385, 0.423246, -0.229841, 0.003485, -0.335344, 0.422842, 0.149181, -0.098666, 0.319697, 0.011559, -0.093916, -0.251308, 0.128860, -0.107793, 0.049968, 0.427315, -0.298458, 0.364466, 0.170628, 0.013922, 0.101395, -0.397380, -0.086106, -0.448131, -0.273610, -0.499503, 0.444348, -0.308198, -0.234691, -0.314214, -0.045743, -0.071050, 0.131883, -0.375319, 0.022599, 0.345296, 0.376789, 0.319553, 0.397610, 0.334567, 0.277773, 0.023352, -0.007787, 0.275087, -0.093357, 0.129579, 0.287433, 0.448330, -0.392090, -0.271488, 0.056324, 0.471213, 0.232187, -0.282481, 0.170741, -0.359180, -0.146553, 0.029031, 0.226904, -0.009197, 0.007844, -0.398811, -0.153292, 0.300128, -0.271726, 0.161734, -0.030326, -0.333620, -0.195719, 0.097398, -0.237336, -0.195948, 0.360559, -0.453150, -0.071907, -0.148288, 0.023328, -0.423857, 0.459120, 0.228649, 0.361931, -0.368526, -0.147320, -0.147457, 0.381940, -0.425357, 0.232815, 0.366612, 0.068968, -0.176146, 0.216264, 0.245858, -0.006859, 0.220779, -0.407479, -0.093587, -0.354283, -0.003884, -0.268040, -0.463319, 0.174065, 0.073842, 0.373445, 0.070017, -0.232231, -0.304608, -0.339166, 0.428944, -0.307260, -0.312859, 0.311442, -0.487335, 0.205322, -0.361167, -0.335508, 0.429051, 0.108896, 0.191166, 0.397466, -0.273685, -0.346828, 0.015097, 0.158549, 0.035989, -0.398877, 0.410137, 0.323497, 0.184075, -0.325523, 0.438520, -0.380391, -0.051244, 0.357795, -0.200687, 0.261708, -0.201313, -0.161559, 0.142342, 0.478383, -0.155989, 0.030268, 0.029461, 0.079118, -0.490979, 0.287048, 0.134396, -0.409091, -0.366008, 0.457606, 0.254797, 0.081532, -0.079038, 0.001314, -0.341915, 0.411244, 0.356129, 0.298837, 0.204158, 0.031569, 0.362826, -0.222586, 0.239872, 0.393582, -0.467004, 0.240223, -0.266402, 0.322685, 0.291377, -0.080972, -0.277285, 0.324097, 0.058137, -0.373175, -0.075898, 0.067320, -0.179483, 0.354216, -0.218730, 0.252596, 0.109424, -0.110537, -0.388631, -0.057942, 0.035816, 0.230239, 0.144299, -0.214661, 0.299337, 0.367335, -0.291460, 0.451722, 0.445700, 0.373620, 0.070970, -0.485237, 0.480912, -0.187522, -0.047614, -0.473177, -0.028946, -0.472569, -0.000991, -0.365771, 0.199586, 0.117352, -0.217439, -0.136935, 0.483698, -0.420462, -0.431347, -0.120622, 0.453562, 0.057534, 0.165380, -0.124612, -0.373051, 0.248529, -0.275172, 0.114776, -0.449496, -0.337685, -0.147829, -0.054017, 0.241121, -0.406379, 0.371755, 0.383825, 0.090800, -0.125648, 0.347715, -0.130602, 0.054967, 0.318956, 0.349737, 0.075725, 0.293649, 0.180929, 0.229304, -0.276110, 0.318738, 0.049081, -0.215872, 0.206538, 0.258057, 0.054774, -0.407945, -0.223004, 0.472403, 0.120903, -0.065844, -0.272155, -0.328767, -0.489492, 0.034066, -0.019658, 0.273449, 0.310706, -0.305206, 0.478566, -0.113685, 0.428169, -0.049499, 0.333203, -0.379090, 0.104697, 0.008585, 0.389558, 0.125746, -0.074869, 0.164961, -0.355799, -0.440297, 0.408654, 0.004922, -0.372330, 0.211379, -0.357737, -0.124426, 0.409131, -0.374565, -0.356722, 0.408608, -0.483120, -0.148809, 0.035530, 0.279735, -0.096458, -0.084179, -0.393802, -0.404769, 0.059978, 0.468436, 0.360952, -0.082636, 0.056052, 0.397327, 0.235483, 0.441401, 0.448182, 0.316465, -0.084784, -0.254381, -0.420506, -0.197527, -0.396176, 0.220268, 0.076260, 0.400227, -0.050533, 0.126878, 0.104484, -0.139245, -0.022898, 0.288723, 0.163122, 0.049851, -0.180506, -0.351915, -0.169816, 0.030361, 0.117548, -0.320619, -0.120184, 0.343256, 0.433696, -0.422389, 0.447694, -0.130860, -0.123514, -0.234374, -0.245094, 0.306378, 0.447081, -0.380215, -0.472000, 0.314971, -0.302652, 0.121323, -0.355564, -0.425516, 0.409985, -0.151515, -0.424869, -0.089892, -0.311845, 0.095635, -0.357359, -0.469242, -0.381551, -0.306295, -0.010700, 0.436129, 0.058957, 0.156903, 0.338101, 0.055514, 0.073073, 0.023296, -0.080071, 0.165224, -0.094149, 0.216992, -0.431813, 0.371765, 0.022612, 0.301251, 0.437526, 0.425870, 0.176510, -0.184589, 0.174609, -0.280134, -0.187085, 0.118326, 0.314016, -0.197148, 0.477441, 0.336945, -0.453398, -0.240675, -0.034387, -0.140309, 0.432900, -0.455588, 0.168789, 0.474230, 0.001027, -0.456838, 0.347277, -0.450812, 0.272414, -0.355003, -0.187966, 0.013005, 0.336010, -0.323002, 0.314112, -0.115673, -0.416905, -0.348812, 0.147034, -0.195205, 0.288386, 0.302082, 0.101465, -0.449807, -0.435739, 0.499500, 0.379011, 0.312814, 0.120640, -0.414324, -0.066583, 0.306112, 0.045699, 0.441206, -0.378615, -0.274027, -0.413177, -0.276183, -0.491292, -0.040521, -0.148274, 0.337996, 0.059441, -0.438805, 0.474750, -0.055001, 0.315746, 0.315815, -0.443032, 0.393237, -0.258854, 0.370776, -0.278177, -0.339844, -0.131985, -0.326531, -0.257297, 0.469897, 0.407851, -0.018446, -0.272414, 0.385878, -0.274974, -0.264674, -0.006321, 0.096891, 0.266898, -0.043424, 0.398841, -0.306892, 0.407003, 0.322857, 0.268190, -0.139463, -0.494484, 0.375738, -0.334315, 0.474707, 0.274361, 0.250924, 0.321787, 0.197181, 0.052903, -0.090459, 0.283281, -0.409908, 0.272050, -0.443122, 0.138972, 0.067880, 0.051141, 0.322807, 0.498432, 0.253078, -0.359912, -0.177010, 0.416908, 0.128134, 0.025454, -0.380891, -0.494480, 0.294231, -0.224289, 0.438930, 0.427620, -0.448223, -0.297757, 0.352786, 0.030640, 0.245193, -0.427419, 0.221297, 0.108575, 0.057566, 0.223993, 0.338316, -0.168220, 0.160908, -0.262200, 0.213376, -0.141966, 0.221917, -0.135000, 0.082543, 0.003928, -0.081014, 0.259361, 0.332756, -0.305154, 0.213527, -0.317794, 0.301454, 0.359646, -0.288524, 0.243631, -0.285437, -0.416012, -0.416751, 0.496027, 0.440639, 0.158520, 0.377251, 0.452271, -0.180264, -0.419552, 0.304615, 0.046469, -0.077981, 0.462687, 0.462803, -0.015866, 0.126235, 0.050324, -0.174462, 0.082226, -0.208414, -0.485301, 0.254276, -0.404148, 0.094960, -0.379056, 0.489071, 0.215847, -0.047871, 0.342492, -0.046817, -0.389627, 0.456535, 0.264695, -0.348362, -0.489334, 0.232726, -0.480842, 0.020716, 0.090431, -0.335520, -0.351446, 0.078451, 0.014184, -0.466385, -0.114704, 0.313015, 0.443979, 0.264649, -0.025092, 0.114249, 0.433802, 0.482120, 0.470123, -0.347148, 0.116370, -0.283945, 0.052510, 0.080087, 0.461250, 0.460800, -0.108266, 0.234672, -0.088714, 0.492038, 0.455829, -0.300440, 0.161925, -0.278241, -0.046770, 0.438900, -0.339964, 0.185979, -0.220605, -0.053735, 0.124720, -0.335004, 0.031316, 0.471917, -0.446522, -0.084431, -0.140725, 0.027642, 0.013975, -0.142594, -0.115824, -0.480796, -0.033058, -0.336028, -0.153925, -0.164302, 0.241632, -0.481992, 0.062109, -0.230433, -0.055619, -0.304716, -0.170696, -0.063955, 0.313989, 0.118447, 0.465058, -0.238644, -0.176361, -0.290868, -0.280563, -0.475979, 0.339646, 0.289521, 0.379372, 0.435626, -0.474013, 0.252405, 0.316803, 0.492035, -0.284946, 0.262876, -0.160363, -0.386104, -0.114107, 0.056315, 0.206398, 0.347672, 0.146594, -0.115794, 0.439293, -0.178618, 0.141676, -0.422846, 0.051928, 0.268593, 0.144192, 0.359862, 0.238317, -0.495901, -0.376521, 0.185959, 0.066813, -0.268733, -0.086897, 0.331129, 0.040026, 0.019404, -0.432296, -0.081566, -0.355499, -0.162891, -0.230569, 0.486146, -0.127296, 0.228487, 0.101884, 0.173408, 0.238337, -0.191109, -0.194150, 0.355063, -0.293760, -0.493604, -0.453562, -0.332528, -0.457486, 0.497547, 0.142668, 0.113283, -0.242089, -0.250698, 0.462882, -0.499650, 0.219741, 0.156556, 0.030435, 0.454427, -0.190434, 0.380704, -0.207143, -0.187847, 0.047385, -0.277026, 0.048480, 0.278485, -0.311922, 0.242510, 0.137908, 0.197736, -0.229573, -0.371263, -0.385240, 0.289397, 0.200354, 0.262006, -0.343264, -0.398389, 0.256583, -0.241438, 0.431702, -0.312848, -0.254552, -0.354505, 0.482097, -0.243318, -0.390634, 0.381900, 0.473064, -0.165778, -0.197831, -0.132732, 0.444624, -0.365062, 0.088878, -0.405626, -0.245923, -0.402892, 0.123468, -0.248674, 0.182780, -0.024923, 0.163747, 0.077547, -0.470345, 0.213186, 0.032808, -0.420510, -0.007073, -0.100820, 0.229547, 0.485936, -0.168330, -0.245662, 0.208730, 0.137272, 0.073191, -0.166770, 0.037089, 0.114967, -0.090437, 0.474612, 0.252907, 0.065726, 0.216633, -0.119632, -0.007157, -0.359784, 0.111195, -0.383313, -0.435731, 0.444417, 0.466636, 0.140201, 0.002768, -0.415536, 0.478346, -0.366683, 0.422452, -0.094867, 0.418043, -0.217023, 0.188411, -0.332502, -0.041429, 0.257230, -0.004809, -0.168472, 0.154595, -0.429612, 0.158099, -0.485612, 0.344311, 0.110466, 0.319772, -0.073641, 0.328886, 0.421672, -0.311491, -0.344737, 0.272299, -0.138737, 0.188125, -0.268761, -0.327771, 0.124330, 0.189014, 0.350282, -0.408621, -0.128090, -0.488236, -0.403040, 0.107123, 0.095900, -0.060875, -0.444882, -0.205407, 0.156923, 0.063761, 0.371893, 0.209124, -0.185223, -0.170343, 0.041779, 0.298787, 0.221998, -0.132020, -0.382279, 0.218677, -0.490806, 0.332599, -0.253649, 0.175122, 0.066848, -0.318373, -0.205385, 0.046218, -0.208253, 0.289708, -0.100448, -0.246535, 0.154705, 0.330156, -0.231254, 0.155934, 0.207651, 0.470788, -0.063468, -0.361697, -0.277876, 0.320136, 0.118764, 0.289397, -0.188944, -0.220734, 0.336805, 0.045353, 0.119411, -0.362265, -0.367796, -0.179534, -0.381793, 0.291571, 0.365576, 0.002786, -0.332492, -0.231206, -0.240844, 0.438263, -0.109149, 0.439389, 0.202661, 0.066289, 0.295215, -0.130308, -0.394535, 0.028241, 0.060620, -0.394813, 0.050248, 0.170421, -0.369991, 0.217649, -0.064993, -0.265172, -0.264675, 0.290355, -0.112078, 0.462816, -0.194553, -0.364785, -0.228856, -0.332486, 0.410954, -0.088760, -0.126410, 0.065953, 0.380008, -0.084808, 0.012315, -0.247688, -0.408558, -0.399126, -0.225334, 0.440718, 0.130448, -0.087392, -0.443071, 0.236264, -0.176863, -0.444202, -0.120586, -0.464152, -0.364479, 0.472621, 0.130447, -0.396256, -0.051496, -0.011149, 0.032341, -0.401205, -0.437227, -0.032906, -0.087045, -0.135809, -0.211034, -0.321832, 0.106045, -0.092496, 0.130512, 0.312308, -0.154374, 0.122673, -0.254403, -0.452378, -0.221149, -0.265798, 0.094782, -0.460168, 0.292252, -0.403798, 0.317900, 0.344404, 0.171139, -0.041719, 0.242841, 0.093691, -0.180833, 0.352904, 0.032064, 0.112919, -0.164713, 0.005543, -0.144786, 0.404044, -0.040665, 0.440941, 0.173932, 0.390481, -0.223123, -0.264245, -0.134877, 0.032804, 0.488980, 0.262294, 0.106374, -0.204867, 0.364703, 0.115133, 0.128177, 0.266384, 0.133031, -0.049824, -0.388605, -0.354473, -0.360539, 0.336408, 0.010754, 0.261142, -0.475979, 0.268254, -0.314944, -0.142465, 0.042931, 0.054268, -0.415979, 0.405270, -0.278031, 0.146406, -0.482341, 0.010774, -0.327325, 0.107212, -0.367221, -0.403388, -0.072393, -0.440003, -0.329261, -0.374152, 0.441038, -0.084049, -0.488183, 0.398443, 0.303179, -0.320696, 0.272366, -0.358039, 0.302386, 0.110863, 0.161040, 0.488328, 0.157071, -0.355675, -0.276195, -0.043508, 0.423974, 0.496268, -0.109215, -0.357191, 0.324351, -0.344321, 0.399818, -0.029809, -0.260129, -0.225727, 0.016634, -0.185265, -0.484765, -0.459368, -0.179079, 0.399886, -0.392976, 0.315587, 0.258964, -0.349986, -0.064632, -0.339932, -0.312215, -0.362901, 0.208907, 0.091259, -0.093518, 0.141302, -0.381087, 0.382497, 0.377301, 0.241167, -0.050166, 0.485850, -0.281701, -0.370915, 0.060447, -0.226175, 0.039174, 0.214666, 0.405861, 0.303648, -0.343870, -0.243966, -0.445167, -0.302124, 0.161447, 0.200909, 0.009583, -0.430964, -0.339444, 0.224724, 0.484724, -0.041202, -0.486850, 0.109113, 0.137714, 0.492815, -0.477974, 0.078371, 0.030168, 0.212840, -0.028450, -0.118631, 0.432542, 0.209408, 0.123371, -0.484679, -0.298425, 0.121048, 0.033684, 0.356121, -0.430948, 0.097974, -0.499285, -0.167115, -0.289633, -0.213751, 0.116666, 0.365567, -0.396731, -0.093594, 0.189489, -0.074345, -0.093684, -0.465043, 0.049231, 0.004122, 0.460954, 0.432934, -0.196869, -0.449630, 0.232731, 0.368121, 0.239657, -0.153123, -0.386027, -0.417080, -0.225071, -0.416463, 0.376915, 0.042067, 0.382674, -0.275261, -0.284723, 0.036897, 0.303462, 0.008669, 0.377092, 0.265983, 0.349846, -0.099273, -0.229779, -0.016623, -0.165516, -0.133303, 0.102478, -0.019449, -0.183107, -0.097498, -0.219337, -0.008881, -0.025625, 0.077751, 0.029029, -0.029925, 0.458225, 0.071678, 0.097365, -0.077123, -0.437023, 0.468433, 0.337626, -0.247644, 0.046559, -0.239744, 0.255283, -0.341806, 0.420054, 0.015809, -0.283800, 0.335117, -0.353012, -0.186000, 0.423477, 0.253174, -0.114651, 0.353865, -0.385815, -0.456923, 0.229574, -0.490563, -0.362575, -0.154888, -0.122978, 0.398900, 0.288066, 0.157186, 0.192375, -0.034315, -0.206414, -0.344560, -0.484417, -0.275337, 0.234967, -0.348248, -0.007536, -0.460955, -0.486265, -0.115026, 0.127861, -0.045503, -0.324982, 0.073254, -0.166252, -0.487218, -0.170350, -0.111332, -0.268837, 0.337548, -0.038667, 0.417765, -0.479224, 0.213297, 0.327417, -0.136596, -0.412953, 0.351102, -0.248838, 0.004709, 0.227703, -0.334862, 0.277790, 0.357803, -0.473330, -0.371019, -0.330784, -0.181174, 0.036906, 0.267577, 0.315272, 0.377521, -0.135645, -0.190159, -0.229109, 0.475403, -0.396425, -0.353755, 0.309354, -0.266126, 0.432011, 0.229497, 0.112371, 0.396185, -0.357310, 0.170404, 0.130665, -0.435355, -0.167258, 0.304016, 0.455388, 0.405808, 0.393688, -0.034308, 0.488248, 0.316470, 0.302850, 0.083033, -0.367909, 0.107751, -0.015063, 0.334068, 0.004344, 0.083686, -0.499812, 0.019906, 0.153269, -0.200462, 0.467998, 0.085941, -0.338303, 0.037930, -0.196964, -0.027511, 0.429324, 0.042802, 0.293767, 0.403208, -0.252534, 0.453824, 0.370177, -0.244130, -0.110358, -0.233664, 0.428537, 0.181798, 0.260781, 0.402059, 0.474739, -0.207217, 0.224934, 0.335427, 0.339276, 0.339430, -0.441698, -0.476783, 0.184300, -0.404829, -0.308751, 0.235487, -0.346833, 0.095738, -0.160128, 0.071414, 0.154361, -0.434775, 0.200593, -0.036339, -0.219599, 0.108387, -0.075001, 0.008484, -0.008238, 0.238273, -0.289911, -0.010939, -0.292959, 0.059966, -0.476085, -0.499617, 0.413156, -0.138633, 0.173613, 0.482093, 0.503563, -0.133929, 0.453525, 0.075391, 0.215453, 0.362398, 0.301301, 0.372028, -0.182720, -0.446825, -0.499332, -0.333036, -0.303112, 0.341685, 0.092145, -0.409332, 0.007569, 0.106247, 0.126785, -0.020378, 0.178528, -0.448124, -0.011957, -0.222497, 0.402869, -0.351368, -0.411347, -0.082998, 0.331247, 0.144497, 0.030809, 0.185192, -0.175577, 0.160864, 0.141421, -0.185606, 0.279412, 0.340296, -0.090069, -0.180910, -0.460138, -0.446637, -0.160437, 0.210549, -0.270067, -0.417374, 0.389094, -0.084508, -0.347578, 0.048320, 0.147857, -0.297552, -0.347291, -0.406377, -0.321583, 0.443089, -0.411402, -0.330733, -0.164724, -0.037362, -0.389255, -0.174377, -0.186164, -0.498184, 0.477354, -0.338299, 0.379427, 0.291778, 0.477696, -0.366404, -0.040750, -0.344440, -0.280883, 0.129649, 0.047995, -0.304075, 0.079652, 0.397215, -0.383309, 0.106989, 0.178133, 0.300611, 0.262224, 0.138099, 0.370349, -0.348380, 0.396719, -0.210193, 0.489395, -0.377021, 0.471493, 0.334286, 0.353720, -0.223672, -0.310026, 0.412297, -0.342865, 0.261786, 0.372139, 0.230633, 0.039362, -0.386535, 0.224074, 0.200147, -0.067730, -0.116915, -0.046607, -0.303985, -0.144021, -0.448976, 0.389093, 0.179110, -0.232576, -0.324584, -0.306769, 0.246697, -0.502426, -0.372377, 0.119204, -0.439867, 0.275294, 0.436860, -0.393894, 0.380166, 0.378755, 0.038477, -0.236032, -0.133602, 0.050497, -0.356564, 0.075867, -0.160091, -0.042339, 0.373232, 0.374821, -0.043586, 0.149265, 0.325566, -0.006342, 0.193398, 0.232163, 0.212006, -0.451798, 0.019702, -0.469074, 0.281697, -0.483811, 0.069254, -0.417468, 0.383971, 0.181163, 0.184383, -0.409965, 0.089132, -0.359080, 0.062400, -0.478863, -0.411631, 0.181999, -0.155662, -0.029388, 0.119668, 0.372389, -0.261335, -0.195802, 0.240431, 0.200467, 0.248867, 0.114267, -0.222776, -0.463847, -0.398895, 0.490827, 0.325664, -0.312954, -0.498571, 0.221318, 0.227287, -0.318374, -0.259588, 0.063609, 0.211468, -0.349257, 0.468164, 0.456217, -0.085258, -0.098441, -0.019772, 0.317444, 0.380690, 0.009691, 0.168749, 0.439411, -0.492053, -0.231822, 0.303464, -0.026979, -0.170049, -0.387472, 0.357092, 0.266056, -0.515259, 0.117321, -0.480226, 0.183495, -0.275892, -0.179546, -0.079189, 0.463818, -0.348167, 0.428621, -0.260795, 0.442804, 0.118415, -0.208506, 0.331396, -0.217579, 0.414002, -0.434685, 0.319515, 0.344296, 0.142990, 0.490363, -0.370634, 0.441932, 0.134288, -0.390328, 0.235976, -0.290025, 0.283743, -0.154185, -0.329385, 0.475774, -0.002038, -0.091452, -0.322479, -0.273657, -0.421493, 0.479273, -0.003112, 0.120456, -0.158663, -0.305268, 0.012715, 0.474809, -0.309360, -0.036291, 0.498471, -0.089886, -0.344281, -0.417100, -0.262870, -0.344825, -0.328318, -0.095238, 0.333775, 0.071130, 0.220921, 0.255839, 0.187343, 0.411463, 0.291189, 0.264015, 0.252326, 0.189672, -0.154461, -0.233255, 0.032548, 0.124125, -0.099279, -0.371889, 0.266001, 0.235258, -0.129996, -0.403379, 0.096546, 0.218353, 0.111918, -0.123637, 0.362244, -0.238603, -0.042656, 0.115512, -0.416381, 0.320949, -0.347205, -0.044794, -0.185285, 0.183608, 0.170384, -0.040833, -0.226088, 0.467629, -0.424690, 0.227063, 0.193777, 0.460970, 0.054162, -0.326657, -0.023072, 0.455509, -0.085370, 0.357509, 0.000442, -0.346224, 0.470733, 0.218624, -0.269095, 0.364584, 0.243663, 0.142763, -0.355147, -0.360897, -0.210247, -0.455967, -0.256468, -0.236484, 0.233454, 0.345179, 0.209432, 0.024999, 0.262789, 0.495255, -0.204467, 0.380337, 0.068327, -0.353601, 0.089673, -0.229783, 0.099873, 0.158904, 0.235295, 0.231572, 0.244753, -0.228094, -0.006027, 0.151723, 0.473926, 0.291963, -0.430933, -0.011419, 0.242639, -0.098935, -0.038576, 0.466254, -0.446651, -0.064995, 0.349110, 0.360562, 0.112648, 0.220866, 0.265444, -0.151068, 0.097666, -0.490528, 0.243787, 0.247066, 0.217318, 0.179927, 0.398575, 0.254833, -0.047554, -0.060294, 0.107497, -0.459626, -0.160505, -0.206304, 0.061179, 0.145390, -0.131413, 0.238586, -0.305980, -0.281958, -0.152066, -0.161624, -0.406859, 0.212822, 0.092925, -0.205207, 0.247800, 0.180339, 0.043698, 0.212268, -0.313752, 0.052319, 0.311721, -0.308075, -0.497011, -0.009321, 0.320483, 0.078204, -0.414024, 0.055499, 0.393237, 0.411937, -0.070645, 0.216951, -0.101586, -0.443802, 0.466715, 0.407351, 0.237864, 0.267640, 0.170343, -0.205735, -0.258061, -0.193399, 0.436371, 0.069390, 0.202490, -0.296933, 0.225996, 0.019911, -0.388946, -0.223993, 0.362900, -0.012195, -0.216342, 0.151415, 0.102125, -0.115080, -0.040259, 0.233267, -0.074214, 0.417626, 0.259832, 0.460642, -0.299978, -0.442448, -0.170828, -0.177494, 0.235483, -0.465212, 0.418943, -0.236826, -0.430577, -0.345878, 0.187086, -0.055242, -0.225707, -0.314961, 0.490151, 0.400359, 0.049664, -0.112346, 0.399754, 0.424771, -0.429371, -0.020778, 0.066628, 0.462381, -0.287923, -0.139062, -0.243599, 0.189978, 0.384566, 0.208985, -0.351951, -0.234496, 0.004454, -0.478977, 0.289457, -0.098487, -0.188990, 0.166449, 0.020958, 0.354632, 0.405054, -0.466847, -0.326457, -0.280473, -0.139457, 0.020361, -0.246433, -0.128310, -0.218504, 0.448724, 0.336995, -0.036168, -0.009860, -0.250205, 0.169089, -0.160324, 0.216062, 0.041673, -0.440843, 0.208868, 0.464031, -0.241031, 0.038430, -0.139525, 0.083540, 0.224876, 0.018110, 0.174015, 0.410706, -0.332798, 0.268501, 0.485542, 0.271887, -0.289112, -0.375939, 0.088992, 0.341585, -0.408897, 0.024970, 0.088441, -0.293559, 0.252225, -0.028143, -0.150744, 0.474136, 0.008049, -0.045830, 0.430925, 0.194849, 0.435824, 0.144558, 0.065695, 0.408999, -0.178803, -0.151301, 0.270991, 0.058808, 0.366849, 0.106730, 0.047425, 0.182236, -0.419233, -0.430424, 0.418221, 0.304774, 0.065113, 0.484728, -0.446842, -0.425850, 0.011446, -0.010250, -0.204410, -0.138524, 0.096986, -0.344651, 0.333048, -0.399539, -0.155367, -0.361613, 0.326101, -0.198160, -0.469282, 0.314577, 0.006395, -0.443191, -0.173977, -0.172571, -0.227413, 0.273569, -0.238954, 0.188749, 0.443352, -0.253987, 0.288748, 0.215586, 0.232393, -0.127900, -0.445288, 0.002915, 0.164512, -0.321155, 0.469504, -0.285133, 0.242217, 0.108219, -0.459045, -0.403304, -0.089188, -0.255136, -0.424341, -0.280258, -0.171996, 0.146085, 0.340123, 0.394029, -0.238501, 0.073564, 0.475592, -0.457549, 0.292790, 0.338480, 0.261139, -0.441355, 0.347780, -0.031996, 0.115063, -0.103232, -0.015247, -0.035223, -0.203097, -0.255420, -0.121221, -0.463311, -0.028660, -0.250831, -0.236952, -0.255814, 0.026787, -0.293316, 0.375249, -0.256280, -0.312238, 0.207595, -0.326561, 0.228457, 0.465699, -0.311401, -0.058236, -0.080892, 0.395490, -0.440604, 0.009526, -0.235894, 0.063990, -0.412000, -0.083677, -0.423427, -0.039226, -0.310719, -0.253560, -0.300033, 0.265193, 0.260338, 0.264555, 0.196174, 0.233716, 0.257420, -0.450292, 0.306041, -0.102087, -0.415223, 0.210082, -0.415409, -0.256687, 0.117241, 0.210303, 0.087484, 0.040648, 0.503761, 0.003677, 0.494042, 0.320506, -0.031976, -0.342658, 0.044229, -0.185173, -0.043503, 0.191634, -0.293825, -0.240884, 0.366057, 0.346841, 0.399824, -0.441993, -0.377533, -0.052683, 0.049886, -0.331558, -0.105066, 0.148171, 0.186198, 0.399014, 0.489026, -0.339207, -0.291076, 0.037862, -0.202714, -0.048023, 0.028149, 0.335375, 0.105797, -0.185317, -0.383384, 0.217008, 0.397658, -0.016601, -0.036306, -0.328828, -0.219340, -0.319302, 0.241763, -0.355882, -0.138489, -0.307157, -0.348708, 0.202590, -0.273143, 0.004208, -0.222643, 0.434195, 0.165223, -0.073736, 0.300265, 0.066827, -0.216026, -0.407179, -0.184833, 0.342427, 0.155548, 0.328241, 0.176567, -0.395934, -0.232251, 0.327213, -0.064185, -0.455034, -0.438280, -0.334594, -0.457993, 0.504188, 0.370164, 0.276869, -0.144902, -0.123827, 0.336661, 0.207780, 0.114809, -0.490052, -0.459366, -0.257386, -0.342269, -0.463696, 0.230682, -0.398196, -0.062112, -0.133183, 0.354443, -0.294650, -0.289892, -0.409149, -0.249668, -0.200559, 0.118344, 0.470895, 0.111984, 0.333013, -0.277737, -0.310460, -0.132649, 0.141443, -0.077558, -0.460959, -0.020600, -0.437407, -0.303100, -0.065354, -0.412482, -0.324786, -0.386857, -0.423879, 0.153828, -0.158979, -0.147343, 0.128243, -0.361638, -0.414157, -0.094564, -0.137891, 0.224311, -0.324231, -0.122045, 0.055924, 0.222101, -0.443109, -0.344955, -0.408652, 0.428566, -0.246482, -0.303808, 0.431890, 0.328676, 0.250948, 0.082667, -0.100742, -0.465819, 0.495683, 0.226819, -0.327538, -0.371925, -0.112712, 0.166202, -0.465894, 0.264906, 0.329129, -0.016175, 0.465941, -0.127485, -0.407268, -0.022718, -0.153086, 0.375385, 0.316266, -0.386152, -0.130259, 0.201796, 0.112184, -0.413176, 0.495764, 0.144416, 0.238839, -0.230501, -0.381453, 0.387966, -0.405194, 0.317673, 0.053153, 0.116863, -0.390947, -0.147659, 0.399914, 0.269763, -0.059907, -0.251939, -0.031205, -0.414512, -0.253571, 0.015951, -0.472641, 0.117208, -0.340052, -0.268357, 0.041198, -0.386335, -0.028753, 0.461607, -0.450200, 0.017380, -0.364580, -0.171191, 0.366154, 0.439672, -0.135327, 0.484491, -0.172548, -0.427630, 0.208537, -0.309487, 0.362768, 0.343386, 0.458497, -0.396260, -0.147639, -0.157521, -0.237599, 0.354230, -0.481858, 0.118466, 0.083150, 0.216206, -0.006623, -0.311730, -0.274348, 0.197859, 0.128016, 0.065248, -0.130177, 0.266519, -0.260531, 0.153571, 0.271563, -0.199449, 0.445520, -0.435472, 0.324840, -0.038951, -0.178822, 0.337642, 0.012991, -0.452093, 0.283244, -0.060001, 0.467690, -0.380010, -0.294251, -0.141974, -0.368669, -0.205730, -0.180485, -0.144394, -0.394884, 0.068206, -0.022183, 0.256013, 0.209757, 0.192670, 0.192034, -0.456169, 0.404487, 0.470334, -0.098326, 0.395832, -0.423672, -0.351316, -0.014727, 0.212922, -0.330003, -0.125284, 0.153259, 0.330090, 0.374693, 0.460204, -0.267019, -0.389306, -0.436788, -0.208745, -0.301222, -0.211701, 0.297495, 0.255375, 0.158554, 0.462081, 0.074264, 0.074791, 0.445940, 0.165354, 0.256298, 0.439756, -0.002622, -0.184138, -0.285363, -0.337732, -0.119154, 0.126668, 0.249464, -0.144209, 0.247543, -0.425736, 0.000860, 0.497775, -0.487332, -0.120764, 0.221854, 0.158314, 0.099176, -0.464091, -0.038533, -0.340135, 0.456854, -0.110497, 0.204457, 0.451452, 0.231934, -0.006727, -0.319818, 0.356827, -0.452443, 0.135433, -0.477345, -0.115827, 0.004043, -0.176833, -0.248900, -0.406722, 0.163337, 0.252662, 0.252997, 0.377197, -0.255545, 0.260846, 0.278444, 0.490921, 0.314389, 0.301697, -0.343546, -0.456021, -0.274356, -0.299677, 0.075882, 0.040676, -0.008536, 0.017709, 0.181740, -0.297877, -0.119360, 0.178246, 0.084000, -0.366084, 0.345197, 0.041701, 0.087146, -0.079343, -0.462254, 0.171111, 0.266525, -0.094163, -0.151493, 0.457337, -0.046349, 0.158025, 0.078288, 0.363009, 0.307679, 0.079215, -0.232256, -0.144154, 0.297470, -0.008149, 0.223878, -0.069524, -0.343273, 0.197347, 0.044539, 0.007970, -0.375940, -0.182838, 0.145085, 0.356945, 0.351309, -0.484622, -0.030860, -0.221266, -0.173699, 0.020474, 0.252479, -0.021289, 0.309545, 0.474409, 0.456881, -0.137391, 0.134443, 0.425895, -0.378221, 0.330582, 0.206635, 0.414854, -0.319000, -0.468436, -0.070612, -0.032014, 0.163211, -0.453000, -0.272676, 0.470954, -0.194691, -0.336984, 0.413403, -0.488235, -0.161648, -0.361016, -0.451359, 0.209518, -0.433800, -0.210817, 0.389789, -0.042315, -0.266406, -0.244512, -0.024629, -0.142271, 0.113793, -0.283928, 0.361297, -0.431799, 0.122521, 0.284880, -0.231013, 0.411758, 0.470596, -0.287316, 0.095283, -0.121549, -0.069691, 0.384677, -0.344650, -0.491177, -0.267201, 0.205351, 0.122353, 0.148905, 0.470355, 0.169946, -0.070929, 0.210910, 0.191190, -0.452716, 0.263178, 0.475293, -0.316894, 0.474400, 0.459143, -0.467194, 0.007250, -0.195262, 0.238143, -0.098831, -0.289837, 0.468241, -0.476903, 0.110344, -0.329824, 0.023070, 0.199731, 0.121855, 0.040826, -0.184364, 0.346143, -0.009222, -0.410357, -0.267400, 0.248733, -0.133923, 0.324156, -0.288009, -0.299464, -0.347064, -0.396851, 0.273765, -0.489918, -0.014007, -0.080691, 0.400956, -0.084578, -0.224833, 0.034033, -0.224822, -0.249677, 0.312370, 0.081843, -0.039324, -0.176379, -0.205777, 0.405769, 0.405526, -0.072809, -0.211705, -0.199175, 0.310187, 0.283407, 0.263878, -0.452136, -0.278223, -0.372011, -0.154058, 0.382768, -0.131171, 0.058254, -0.420399, 0.358207, -0.461994, 0.356873, -0.202315, -0.124903, 0.196678, 0.206596, -0.313165, -0.173982, 0.264243, 0.187200, 0.375947, 0.212717, -0.342415, -0.078196, -0.279803, -0.268549, -0.268919, 0.130211, -0.054709, 0.288507, 0.447531, 0.403721, -0.441243, 0.460228, -0.318860, 0.343675, -0.137542, 0.085358, -0.263585, -0.437820, 0.156099, -0.285651, -0.242864, 0.041421, 0.138029, -0.207348, -0.392035, 0.186970, -0.431558, -0.477537, -0.050300, -0.133089, -0.476536, -0.100219, -0.080410, -0.451172, 0.044038, 0.329515, -0.405092, 0.060300, 0.131611, 0.287050, 0.374910, -0.387419, 0.108636, 0.239400, -0.004636, -0.428469, -0.272065, -0.139289, -0.014019, 0.452555, -0.488092, 0.110526, 0.108861, -0.374295, 0.458126, -0.497237, -0.220114, -0.144038, 0.327129, -0.460106, -0.308906, 0.109612, -0.405962, 0.376526, -0.378850, -0.130555, 0.142352, -0.136670, 0.009100, 0.356248, -0.332551, 0.070588, -0.289440, -0.002509, 0.462710, -0.300459, -0.237801, -0.154720, 0.450739, -0.214738, 0.096475, 0.465525, -0.415810, 0.226098, -0.338334, 0.025071, -0.240204, -0.187902, -0.029239, -0.321340, 0.083869, 0.318336, 0.092057, 0.483414, 0.139148, 0.100927, 0.231566, 0.497297, 0.235752, -0.005510, -0.067436, 0.136917, -0.167542, 0.376545, -0.256512, -0.236306, -0.228760, -0.286112, -0.212289, 0.302254, 0.083747, -0.095206, -0.072364, -0.074484, 0.427842, 0.484788, 0.265596, -0.473137, 0.049002, -0.076231, -0.312812, 0.463617, 0.308699, -0.348981, 0.366170, -0.428901, -0.242447, -0.120220, 0.132428, -0.049950, -0.394372, 0.490581, 0.306510, 0.386279, 0.173356, -0.300222, 0.057548, -0.210406, 0.199359, 0.314866, 0.137179, -0.328899, 0.417871, 0.407467, 0.159115, 0.482317, 0.128139, 0.441586, -0.306584, -0.029344, 0.301924, -0.428213, 0.169203, -0.474496, -0.251729, 0.357369, 0.279131, 0.116010, -0.140307, -0.135286, 0.463023, 0.256781, -0.113287, -0.438513, -0.082346, -0.347975, -0.252071, 0.375093, -0.462939, -0.161138, -0.096163, 0.466098, -0.457875, -0.320062, 0.221311, -0.293878, 0.485629, -0.478080, -0.499869, 0.416805, 0.341483, 0.446052, 0.314694, 0.058261, 0.466206, 0.195684, 0.354090, -0.455658, -0.168565, 0.037736, -0.064193, -0.471877, 0.366106, -0.143288, -0.285611, -0.384688, -0.188218, -0.375313, 0.194140, 0.242375, 0.269941, 0.342004, -0.332575, -0.398832, 0.240005, -0.312676, 0.461074, -0.093123, -0.460684, 0.237574, 0.411080, 0.411828, -0.007356, -0.322654, -0.315454, -0.273117, -0.162962, -0.194136, 0.446835, -0.464846, -0.302939, 0.311937, 0.471386, 0.187166, 0.199026, -0.010066, -0.389632, 0.069154, 0.368473, 0.023727, -0.139409, 0.415054, -0.290547, 0.088940, 0.213441, -0.350931, 0.215426, -0.330248, 0.200279, -0.077702, -0.347219, 0.047135, 0.242658, 0.109541, 0.291733, 0.328815, -0.144746, -0.226148, -0.405618, -0.294294, -0.438554, 0.217304, 0.078412, -0.482572, 0.171643, 0.228256, -0.473189, -0.117258, 0.161010, 0.147824, 0.018714, 0.320944, -0.037632, 0.489856, -0.200466, -0.381147, 0.298302, -0.059649, 0.266188, 0.470618, -0.338123, 0.038716, 0.207716, 0.170229, 0.207033, -0.180887, -0.404918, -0.270631, -0.387066, 0.002663, -0.384758, 0.440960, -0.368681, 0.478958, 0.117631, -0.095490, 0.133094, -0.193102, -0.343500, 0.099185, -0.358743, -0.469455, -0.271774, -0.238095, 0.477567, -0.407261, -0.315617, -0.156154, 0.383091, -0.345124, 0.225154, 0.316351, -0.149735, -0.127185, 0.264459, -0.303287, 0.102374, 0.052874, -0.234906, -0.006804, -0.390292, -0.492505, 0.349333, -0.113132, 0.313722, -0.437092, -0.114963, 0.489113, -0.453054, -0.087723, 0.050869, 0.043911, 0.235860, 0.156085, -0.440716, 0.073652, 0.334209, 0.440586, 0.219007, -0.356669, -0.020949, 0.200476, -0.383968, -0.359827, -0.260511, 0.021637, -0.143635, 0.445710, -0.074162, -0.020345, -0.373874, -0.279799, 0.127950, -0.189681, -0.041006, 0.269414, 0.016749, 0.059580, 0.443013, -0.139461, 0.298943, -0.159856, -0.266536, 0.385687, 0.294624, 0.402087, -0.325956, -0.361584, 0.440293, 0.187306, 0.470697, -0.376924, 0.138448, -0.228595, -0.356593, -0.292185, -0.313765, -0.313469, 0.475521, 0.185321, -0.338699, 0.289766, 0.064843, 0.436275, -0.304056, -0.480635, -0.073194, 0.167345, -0.279546, 0.015418, 0.354017, -0.045986, 0.341207, -0.165445, -0.400851, -0.450756, -0.077180, -0.466968, -0.224849, -0.034588, 0.217933, -0.334556, 0.195996, -0.244568, 0.267676, 0.429800, 0.416316, -0.030940, -0.170828, 0.428061, -0.294563, -0.185795, -0.436221, 0.462480, -0.000298, 0.280513, 0.410963, -0.162187, -0.011644, -0.153447, 0.172004, -0.299969, 0.178386, -0.488576, 0.173413, -0.142613, 0.222181, -0.481892, 0.373566, 0.428185, -0.184510, 0.180883, -0.335012, -0.259624, -0.437733, -0.393971, -0.369699, -0.239128, 0.210393, 0.346062, -0.289359, -0.225937, -0.212554, -0.208292, -0.211698, 0.144712, 0.248279, 0.407889, -0.199905, 0.243757, 0.261873, -0.219208, -0.163783, 0.088315, 0.302408, -0.347840, -0.287271, 0.376739, 0.208915, -0.067113, -0.311089, 0.467218, -0.437192, 0.404229, -0.236331, 0.228839, -0.164076, 0.027942, 0.229865, -0.356038, 0.199721, 0.181452, -0.242439, 0.346968, 0.317258, -0.287666, -0.298478, -0.466636, 0.227010, 0.457729, -0.107523, 0.177958, -0.402020, 0.371230, -0.456773, 0.487952, -0.423319, -0.419761, 0.241159, 0.389511, -0.296515, 0.101107, -0.457329, 0.235972, 0.231018, -0.327185, -0.234180, 0.195328, -0.469727, 0.174027, -0.175699, -0.495710, -0.378253, 0.365757, 0.202644, -0.405187, 0.441472, -0.263501, 0.061845, 0.155483, -0.493577, 0.386177, -0.146938, 0.441862, -0.087317, 0.464865, 0.378790, -0.039622, 0.361224, 0.000703, -0.311991, -0.102152, 0.311447, -0.369899, -0.068621, -0.309612, -0.020278, 0.127501, 0.166739, -0.431271, 0.091028, 0.072727, 0.230352, 0.011916, 0.316157, 0.094083, 0.034552, 0.358051, 0.271683, -0.159525, -0.252616, -0.458640, 0.175093, -0.133866, 0.478927, 0.049286, 0.438888, -0.373598, -0.293905, -0.276691, 0.175687, 0.028573, -0.068491, -0.048161, -0.454059, -0.086633, 0.487097, -0.079382, 0.473149, -0.295416, 0.467437, 0.369647, -0.041502, 0.405584, 0.116094, 0.182376, 0.483847, -0.480193, 0.127769, -0.049466, -0.251804, 0.004672, 0.371282, -0.098626, 0.224289, 0.376079, 0.016580, -0.442410, 0.256617, 0.376613, 0.418688, 0.212855, -0.494764, -0.480724, 0.209968, 0.198986, 0.339250, -0.392005, -0.028748, 0.339843, 0.072501, -0.494804, -0.128434, -0.251054, -0.399021, -0.191217, 0.288026, -0.392480, -0.294074, 0.501860, 0.141405, -0.258286, 0.451769, 0.011823, 0.231606, 0.227350, 0.354709, 0.230265, 0.108662, 0.273936, -0.363422, -0.035413, -0.085044, 0.157816, -0.118059, 0.233010, -0.378459, 0.216784, 0.067971, -0.331377, -0.177171, -0.029487, 0.118889, -0.052024, 0.287448, 0.467366, 0.186132, -0.204642, 0.241079, -0.017903, -0.425246, -0.047332, 0.284012, 0.246423, -0.173226, 0.466159, 0.127749, 0.004173, 0.051630, 0.204780, 0.030339, -0.492494, -0.257968, -0.366003, 0.329083, -0.138188, 0.110448, 0.120512, -0.492547, -0.477426, -0.264757, 0.012695, -0.256278, -0.050889, 0.287336, -0.233884, -0.208929, 0.048235, 0.407207, 0.007865, -0.181476, 0.082376, -0.072367, -0.380373, -0.327741, 0.145540, 0.158267, 0.391388, 0.469721, -0.020036, 0.246206, 0.476942, -0.381725, 0.268971, 0.139641, 0.229871, 0.172422, -0.315632, 0.078020, 0.065716, 0.182491, -0.090022, -0.273904, 0.473955, -0.309846, 0.208653, 0.436706, 0.244828, 0.092359, -0.044994, 0.345391, 0.402089, -0.508717, -0.000532, 0.479360, -0.215549, 0.157388, -0.137675, 0.247223, 0.272512, 0.215443, 0.048591, 0.124553, 0.107281, 0.051831, -0.381858, 0.383817, 0.161966, 0.213235, 0.261508, 0.017708, 0.177443, -0.408147, 0.231689, -0.274917, -0.407645, -0.054082, -0.209489, -0.480675, 0.323377, 0.319456, 0.442707, 0.076007, -0.455241, 0.061135, 0.167808, -0.165216, 0.472872, -0.256251, 0.048911, 0.013974, -0.197945, -0.228774, -0.328302, -0.394212, -0.128325, 0.246504, 0.406419, 0.228477, -0.184112, 0.256870, -0.089651, 0.400960, -0.212728, -0.421363, -0.033095, 0.479137, -0.288012, -0.084695, 0.001408, -0.387706, -0.106567, -0.166433, 0.005782, -0.135267, -0.356126, 0.356085, -0.203283, 0.331586, -0.347207, 0.089384, 0.104033, 0.299550, -0.500439, 0.026199, 0.449253, 0.211869, -0.276314, 0.308572, 0.399976, -0.409094, 0.071191, -0.103704, 0.146169, -0.394246, 0.191485, 0.240597, 0.019556, -0.067361, -0.174453, -0.078128, 0.397143, 0.054800, -0.258792, 0.359211, 0.425689, -0.143223, 0.198986, -0.446999, -0.210868, -0.270692, 0.072735, 0.275701, 0.008281, 0.394774, 0.029933, -0.111156, 0.171206, -0.479714, -0.346512, -0.384752, 0.120085, 0.188722, -0.377030, 0.354987, 0.210992, -0.138235, -0.514510, -0.298722, -0.359421, 0.390086, -0.381223, -0.434197, -0.097874, -0.197813, -0.241715, 0.064151, 0.158754, -0.175550, 0.081450, -0.396811, 0.357236, 0.099065, -0.400942, -0.359808, -0.083773, -0.450761, -0.231027, 0.091138, -0.411097, -0.227527, 0.440164, 0.212263, 0.015313, -0.508643, -0.259313, -0.456273, -0.245138, 0.225602, 0.138311, 0.270160, -0.358668, 0.014219, 0.061609, -0.038356, -0.297022, -0.280153, 0.322403, -0.195907, 0.050981, 0.454353, 0.135077, 0.424126, -0.130950, -0.158157, 0.354451, 0.309035, -0.198680, -0.397972, -0.011867, -0.059956, -0.155898, -0.213090, -0.497988, 0.402091, -0.486977, 0.152890, -0.291366, 0.107909, 0.133955, 0.274088, -0.029629, 0.452611, -0.262743, 0.152072, 0.280918, 0.477121, -0.167791, -0.229739, -0.281176, -0.017451, -0.042356, 0.241571, -0.459163, -0.308089, 0.380031, -0.046840, -0.315168, -0.016864, -0.225609, 0.387069, -0.411451, -0.159364, -0.418886, 0.165817, 0.191291, 0.486835, 0.284836, -0.262746, -0.280147, -0.025633, 0.331335, -0.044945, -0.070029, 0.423447, -0.174054, 0.169622, 0.223479, -0.237236, -0.397628, 0.371804, 0.245283, 0.436751, -0.022882, 0.474906, -0.239291, 0.007239, -0.240777, -0.144125, -0.124291, 0.125603, -0.260107, -0.478284, -0.336364, 0.086297, 0.151992, 0.196632, -0.229124, 0.243288, -0.198249, -0.346961, -0.105426, 0.017760, -0.454854, 0.112086, -0.254859, 0.011271, -0.228242, -0.133536, -0.058009, 0.345186, -0.217548, 0.004948, -0.240216, 0.453319, 0.493935, -0.214007, -0.122972, 0.336524, 0.141840, 0.122137, 0.029873, 0.133600, -0.310120, 0.441195, 0.093717, 0.092537, -0.268080, -0.004637, -0.242008, 0.489201, -0.438657, -0.324260, -0.253494, -0.366651, 0.282972, -0.196674, 0.007538, 0.195299, -0.390249, 0.150246, 0.358814, -0.373060, 0.445699, 0.160078, -0.149464, -0.114882, 0.224521, 0.046813, 0.081952, -0.453647, -0.229559, 0.383302, 0.054536, 0.405801, 0.196272, -0.102582, -0.204193, -0.398848, 0.392826, -0.365544, 0.041540, 0.408779, -0.320608, 0.217095, -0.164749, 0.109711, 0.448590, 0.045461, -0.130887, -0.353840, 0.279438, 0.273971, 0.103046, -0.210823, -0.449383, -0.114123, -0.446063, -0.464846, 0.550017, -0.406296, 0.253800, -0.008284, -0.135550, -0.260684, -0.447707, -0.432855, -0.090119, 0.317413, 0.185114, 0.572552, 0.330713, -0.428752, 0.268692, -0.076185, -0.385659, 0.365832, 0.301177, -0.078888, -0.044710, -0.517200, 0.416016, -0.384414, -0.296742, -0.253722, -0.252800, -0.356449, 0.355195, -0.391072, -0.433732, -0.209479, -0.159654, 0.083596, -0.100391, 0.035326, 0.112212, -0.017608, 0.209247, -0.223783, -0.110047, 0.368956, 0.082414, 0.053734, 0.282223, 0.401978, -0.119232, -0.412777, -0.012480, 0.205144, 0.436487, 0.058830, -0.063902, -0.008813, 0.157445, 0.404704, 0.393536, 0.034376, -0.261405, 0.077830, 0.256217, 0.227620, -0.267531, -0.296602, -0.041206, -0.042713, -0.271941, -0.471190, -0.266126, -0.544441, -0.139027, 0.164499, -0.086531, -0.092129, 0.199931, -0.093003, 0.345301, 0.395082, -0.244334, 0.216700, -0.445928, -0.338692, 0.375235, -0.149667, -0.458295, 0.126119, -0.207463, 0.277124, 0.134899, 0.465567, -0.082667, 0.242502, -0.203181, 0.167729, -0.029476, 0.459894, 0.277725, -0.069248, 0.165151, -0.488637, 0.031126, 0.400686, 0.440392, -0.286530, -0.273986, 0.060863, 0.175610, 0.450896, 0.472593, -0.217228, 0.179609, -0.262684, -0.452445, 0.417288, -0.481699, -0.524723, 0.417452, -0.433089, -0.123299, 0.151969, -0.301974, 0.318745, 0.461144, 0.367338, 0.289498, -0.048639, 0.060687, 0.245218, -0.321602, -0.474461, -0.042766, 0.384083, 0.093249, -0.112624, -0.350598, -0.234818, -0.431084, 0.241628, -0.236201, -0.146556, 0.094866, 0.345731, 0.059393, 0.002491, -0.256912, 0.139888, -0.480693, -0.258639, 0.455639, 0.470597, -0.109229, -0.345124, -0.164926, 0.019366, -0.317078, 0.165806, -0.257327, 0.225979, 0.145699, 0.388719, 0.327346, 0.405674, 0.423997, 0.126694, -0.438902, -0.030210, 0.010036, 0.427112, -0.443641, 0.306672, -0.130033, -0.385777, -0.386674, 0.211734, 0.542257, -0.152175, 0.000009, -0.352594, 0.022819, -0.064576, -0.535431, 0.116025, 0.213393, -0.322580, -0.170496, 0.127201, -0.367201, 0.294888, -0.529036, -0.546556, 0.019062, 0.407320, 0.511335, -0.017603, 0.022118, -0.135040, -0.236773, 0.456696, -0.491091, 0.078561, 0.155831, -0.433492, 0.042936, 0.237599, -0.043647, -0.498853, -0.207360, -0.479428, -0.300236, -0.246726, -0.394988, -0.429992, -0.054438, -0.199468, -0.091323, -0.455772, -0.487571, -0.012769, -0.021482, -0.125490, -0.158608, -0.190185, 0.292691, 0.067179, 0.427136, -0.233507, -0.078886, 0.205048, 0.386144, -0.488426, 0.505891, 0.484469, 0.250076, 0.346998, -0.073580, -0.081851, -0.245651, 0.443257, -0.438167, -0.149194, -0.055637, -0.202575, -0.262271, -0.439669, 0.435116, 0.322260, -0.393741, -0.317420, 0.365163, -0.312104, 0.468735, 0.251528, -0.313369, 0.155931, 0.160227, -0.201026, -0.172266, 0.011945, 0.287100, -0.094438, -0.369520, -0.024996, -0.090092, 0.483323, 0.475820, 0.501347, -0.265418, -0.316333, 0.112498, -0.304844, 0.373915, 0.016077, 0.186250, -0.262292, 0.106182, 0.086139, -0.106742, -0.414606, 0.203216, -0.370278, 0.112352, 0.124380, 0.125794, 0.180049, 0.036450, 0.207786, 0.247624, 0.354561, -0.219614, -0.326383, -0.279565, 0.321836, -0.456580, -0.100077, 0.239004, 0.288385, 0.030466, 0.400531, 0.151319, 0.050433, -0.087508, -0.396499, -0.045058, 0.110900, 0.367716, 0.139375, -0.228776, 0.258531, 0.066258, 0.341976, -0.252320, -0.218848, -0.112391, -0.056498, -0.070798, -0.247270, 0.435267, -0.073423, 0.098708, -0.027088, 0.379261, -0.399002, -0.338136, -0.284832, -0.082758, 0.007232, 0.408111, 0.092755, 0.359946, -0.132381, -0.280603, -0.111863, 0.433472, -0.411402, 0.181837, -0.255118, 0.328719, 0.066026, -0.103088, 0.476334, -0.038474, -0.024315, -0.364761, 0.302210, -0.222474, 0.357695, -0.049264, -0.477226, -0.498283, 0.485611, -0.406854, -0.032795, -0.277157, -0.097746, 0.266121, 0.275899, 0.490234, 0.169087, 0.431442, 0.041352, 0.324040, -0.395879, -0.278465, 0.409605, 0.049060, -0.185490, 0.102015, 0.228494, 0.026586, 0.128496, -0.395884, 0.197006, -0.089699, 0.408529, 0.125946, -0.193985, -0.257980, -0.179826, -0.032976, -0.384034, 0.155189, 0.186944, 0.229084, 0.455130, 0.386697, 0.116794, -0.286458, 0.103930, 0.037572, -0.320464, 0.075283, 0.110582, 0.479374, -0.270848, -0.239790, -0.245110, -0.051875, 0.313809, 0.074437, 0.123001, 0.409462, -0.089721, 0.103487, 0.063572, 0.063677, -0.492095, -0.057777, -0.429805, -0.339811, 0.474678, 0.047602, 0.126162, -0.037352, 0.418395, 0.387294, 0.427359, 0.478336, -0.465324, 0.485606, -0.222604, 0.453677, 0.449221, -0.301010, -0.452891, -0.462377, -0.320757, -0.125741, 0.133650, -0.428723, 0.379508, 0.043654, 0.232867, -0.141412, 0.422663, -0.196151, -0.238473, -0.445820, -0.159110, 0.007109, -0.468568, -0.344363, -0.481200, -0.453463, 0.418962, -0.166744, -0.453664, 0.485139, -0.012920, -0.491783, -0.312705, 0.424882, -0.388110, -0.092679, -0.388805, -0.249177, -0.164997, -0.426057, -0.453465, -0.400097, 0.530651, 0.227150, -0.307207, 0.344814, -0.454368, -0.090161, 0.451889, 0.110872, -0.215483, 0.173540, -0.185704, -0.243066, -0.476320, 0.235589, -0.240680, 0.483591, -0.163169, 0.499090, -0.201649, 0.270142, 0.070468, 0.191048, 0.136840, 0.180759, -0.317054, -0.147794, -0.159240, 0.200840, 0.345897, 0.302671, -0.378238, 0.496222, 0.411193, -0.267014, 0.093845, -0.201768, 0.390457, -0.341047, 0.097550, -0.348908, -0.379573, 0.423983, -0.045075, 0.007692, -0.472217, 0.062674, -0.151436, 0.171709, 0.402044, -0.390576, -0.343067, 0.475208, -0.058464, -0.018190, -0.490580, 0.355766, -0.373654, -0.150493, -0.197773, -0.343747, 0.023925, 0.473102, 0.215620, -0.073980, -0.343118, -0.134482, 0.170674, 0.186524, -0.213302, 0.330878, -0.397217, 0.330086, -0.054393, 0.013425, -0.405842, -0.494317, 0.157388, 0.263692, 0.360654, 0.022497, -0.310603, -0.024655, -0.462671, -0.373789, -0.117178, 0.297932, 0.453089, -0.325519, -0.011841, -0.139124, 0.465785, 0.354128, 0.276316, 0.395136, 0.006003, 0.062292, 0.350452, 0.064736, -0.126273, -0.483699, -0.333381, -0.156119, -0.048562, -0.289712, 0.175410, 0.030503, -0.104042, 0.436910, -0.465030, -0.102284, -0.056816, 0.274434, -0.002133, 0.384083, -0.187307, 0.160077, 0.196340, 0.155996, 0.026018, -0.294122, -0.262157, -0.136234, 0.156680, -0.377106, 0.290007, 0.070663, 0.140649, -0.046936, 0.425177, -0.221690, 0.097728, 0.132096, -0.392211, 0.048808, 0.429489, 0.175254, 0.141094, 0.136628, -0.085602, 0.155990, -0.449072, 0.416853, -0.446899, -0.314868, -0.089740, 0.478545, -0.482649, 0.384157, 0.003780, 0.231163, 0.311656, -0.213537, 0.250175, 0.441173, 0.202383, -0.328281, -0.386046, -0.461440, -0.192406, 0.118229, -0.204312, -0.218294, 0.012164, -0.099307, 0.014228, 0.390735, -0.476421, 0.439633, 0.421183, 0.231951, 0.187583, -0.243756, -0.156721, 0.079734, -0.308644, 0.379727, -0.224653, 0.212563, -0.173028, -0.211862, 0.315210, -0.192043, 0.062434, -0.449071, 0.340347, 0.243965, 0.338444, -0.460763, 0.050515, 0.078848, -0.085163, 0.052106, 0.303182, -0.170286, -0.450262, 0.006897, 0.369929, 0.447440, 0.014990, 0.399610, -0.254777, -0.072542, -0.424027, -0.102087, 0.233522, -0.015434, -0.095625, -0.293743, -0.304559, -0.226739, 0.069575, 0.276250, -0.140210, -0.282065, 0.373418, -0.185887, 0.358763, -0.215010, -0.262950, 0.241293, -0.045393, 0.319547, -0.289400, -0.416767, -0.223307, 0.105294, -0.044589, 0.100510, 0.045245, 0.228347, -0.320916, -0.353931, -0.327819, -0.463388, -0.208621, 0.190871, -0.307020, 0.339534, -0.125088, -0.311940, -0.227730, 0.280274, 0.050686, -0.142468, -0.009535, -0.037524, -0.061648, 0.486049, 0.159192, 0.305631, 0.267972, 0.294919, 0.041111, 0.266483, 0.288131, 0.320324, 0.080476, 0.143251, -0.372310, -0.073392, -0.199357, 0.337050, 0.271194, -0.378517, 0.281227, -0.200291, 0.147438, -0.183497, 0.437257, -0.431388, -0.408205, -0.201300, 0.303236, -0.124383, 0.347117, -0.399618, 0.303690, -0.446926, 0.370449, 0.376286, -0.100398, 0.285098, -0.058518, -0.186416, -0.343841, 0.375543, -0.286904, -0.304471, -0.120370, 0.186876, 0.033521, 0.149440, 0.479476, -0.339971, 0.201331, 0.197089, -0.401526, -0.136887, 0.475649, -0.202303, 0.318108, -0.354686, -0.159501, -0.361266, -0.299405, -0.477811, 0.045775, 0.026304, -0.366015, 0.294097, -0.311598, -0.271852, 0.048582, -0.348580, -0.189581, -0.295903, -0.214584, -0.263186, 0.284531, -0.231557, -0.012891, 0.251348, 0.435622, -0.145385, 0.408564, -0.329302, 0.491668, 0.320221, -0.340289, -0.095084, -0.298638, -0.281003, 0.241925, -0.472760, 0.255074, 0.349008, 0.112668, 0.215834, 0.341300, -0.370156, 0.304065, -0.054704, -0.089080, 0.492745, -0.070792, -0.177165, -0.115698, -0.049314, 0.435711, 0.256332, 0.400372, 0.388732, -0.411596, -0.067423, -0.142458, -0.132623, 0.348396, -0.301384, -0.377590, 0.378965, -0.384266, 0.282796, -0.255014, -0.263507, 0.413648, -0.127115, 0.490703, 0.209979, 0.220091, -0.171898, 0.268512, -0.179224, -0.280028, 0.001607, 0.145841, -0.365699, 0.198508, 0.145756, 0.064940, -0.493945, -0.455531, -0.152337, 0.414859, 0.484201, 0.215995, 0.203681, 0.305836, -0.158178, 0.239867, 0.218825, 0.300112, 0.036373, 0.065678, -0.450227, 0.443300, -0.476638, -0.322847, 0.052068, 0.307426, 0.330865, -0.060004, -0.030414, 0.379331, 0.207179, -0.093099, -0.450006, 0.236571, 0.477403, 0.436983, -0.168051, -0.006309, -0.469369, -0.384771, 0.345328, 0.321790, -0.341408, 0.054358, 0.410068, -0.225790, 0.374548, 0.064202, -0.022522, -0.059155, 0.290455, -0.270405, -0.220746, -0.458580, -0.306513, -0.112623, -0.179184, 0.003762, -0.440336, 0.485776, -0.001817, 0.382775, 0.158770, -0.295102, 0.360139, 0.001841, -0.273061, -0.429502, 0.163942, -0.289206, 0.186587, 0.140891, 0.107578, -0.096833, -0.161290, 0.453586, 0.337402, 0.486228, 0.268741, 0.303255, 0.373340, -0.178355, -0.402953, -0.198390, 0.205313, -0.452930, -0.238225, -0.494338, 0.452104, 0.206190, 0.397128, 0.040159, 0.191799, -0.447058, -0.297661, 0.329233, 0.138280, -0.469790, -0.197639, 0.058132, 0.088894, -0.133850, -0.007766, 0.403269, -0.366759, -0.176491, 0.015127, 0.294696, -0.050676, 0.169512, -0.454177, 0.006227, 0.171544, -0.120791, -0.376847, 0.119704, 0.207291, 0.293668, 0.000950, -0.384005, -0.236546, -0.040695, -0.167413, 0.381106, -0.408488, 0.183129, -0.015673, -0.071685, 0.495323, 0.247156, 0.072562, -0.129128, 0.141729, 0.314146, 0.015995, -0.270266, -0.186317, 0.154610, 0.484178, 0.163239, 0.308288, 0.064539, 0.245306, -0.188863, 0.058763, -0.340161, -0.182471, -0.117038, -0.362487, -0.384013, -0.321432, -0.123309, -0.418474, -0.033522, -0.165538, -0.368012, 0.421262, 0.109932, 0.145815, 0.180582, -0.373979, 0.398311, -0.104714, 0.331319, 0.410487, -0.250450, 0.031198, -0.360271, 0.013677, 0.402751, -0.503724, 0.147396, 0.489283, -0.442868, 0.174378, 0.485712, -0.410559, 0.128164, -0.382389, 0.434601, 0.357689, 0.335213, 0.025420, 0.350844, 0.422481, 0.388467, 0.395945, 0.083113, 0.429300, 0.263558, 0.234557, 0.483021, -0.378688, -0.194548, -0.233785, -0.152083, 0.496483, 0.363984, 0.384433, -0.320810, 0.062306, 0.424506, -0.086633, -0.309858, -0.299769, -0.296942, 0.254602, -0.380518, -0.390062, -0.048339, 0.186625, -0.238913, 0.099654, -0.402916, -0.248771, 0.108873, -0.181253, -0.229083, 0.035305, -0.267407, 0.006015, 0.499831, 0.410230, 0.478298, 0.003579, 0.084288, -0.247341, -0.219226, -0.216330, 0.443388, -0.381864, 0.065641, 0.156453, -0.020446, -0.278020, 0.402482, 0.317794, 0.335159, 0.015948, 0.142864, 0.483124, 0.311335, 0.308912, 0.314801, 0.064008, 0.055277, -0.497280, -0.375143, -0.015770, 0.185441, -0.257313, 0.246257, 0.225882, -0.283182, 0.338208, 0.223710, -0.110152, -0.291059, 0.191808, 0.191326, 0.046446, -0.375732, 0.173198, -0.147330, 0.133424, 0.318846, -0.151868, 0.014001, 0.440631, 0.236944, 0.288500, -0.024651, 0.247821, 0.438053, 0.118895, -0.284174, -0.452164, 0.321104, 0.353307, -0.089852, 0.214919, -0.246188, -0.032102, -0.034999, -0.033403, 0.095462, 0.324494, -0.311939, -0.098883, 0.292332, 0.078463, 0.267421, -0.248455, 0.004576, -0.169206, -0.035814, -0.279838, 0.230235, -0.042422, -0.009562, -0.269803, -0.039671, -0.228005, -0.383897, 0.365245, 0.294971, -0.492985, -0.024820, 0.135846, -0.297886, 0.201086, -0.325024, 0.199096, -0.382106, -0.444491, -0.171938, -0.342216, -0.154802, 0.404416, 0.209805, -0.153408, 0.011860, 0.506524, -0.150767, 0.321212, -0.167597, 0.340781, -0.202674, -0.061212, -0.114328, 0.282178, 0.503927, -0.005296, -0.503655, 0.340537, 0.478213, 0.252334, -0.091137, -0.496263, -0.124645, 0.034225, -0.007325, 0.379066, -0.153962, -0.051168, -0.406002, 0.209123, -0.406441, -0.248756, 0.184760, 0.274093, -0.475216, -0.058595, -0.003948, -0.081016, 0.199734, -0.014767, 0.238108, 0.058908, 0.323804, -0.479059, -0.343013, -0.446413, 0.039964, -0.393673, -0.156085, -0.019525, 0.450057, 0.453708, 0.145594, -0.049538, 0.153846, -0.174915, -0.419988, -0.203726, 0.358151, -0.402591, -0.321305, -0.421426, -0.302224, -0.198813, 0.432608, -0.320847, -0.268847, -0.197434, 0.390715, -0.306186, 0.383057, 0.050677, 0.228364, 0.383189, 0.265487, -0.125797, -0.000098, -0.121742, 0.124092, -0.392219, -0.008810, -0.005608, 0.040346, -0.199400, -0.385334, 0.152941, -0.052034, -0.274528, -0.508672, 0.186782, 0.264235, -0.379656, 0.415835, -0.092634, 0.295774, -0.501895, 0.511818, 0.115648, -0.429535, -0.134563, 0.021953, -0.475259, -0.337156, -0.297067, 0.315372, -0.452893, 0.057139, -0.151377, -0.257553, -0.410888, -0.409561, 0.389726, 0.071155, 0.108142, -0.269739, -0.010147, -0.318181, 0.238161, 0.095242, -0.218797, 0.397764, -0.228046, -0.370144, -0.091083, -0.367344, 0.347946, 0.341943, -0.271221, 0.357580, 0.415570, -0.411595, -0.348593, -0.359106, -0.333066, 0.293907, -0.339550, -0.409347, 0.026159, 0.168409, 0.046297, 0.223051, -0.271897, 0.062528, 0.176863, 0.156536, 0.438614, 0.478863, 0.312588, 0.237172, -0.345405, 0.272609, -0.464948, -0.101212, 0.467778, -0.123455, 0.227470, 0.207651, -0.024956, 0.214625, 0.126587, 0.046204, 0.158678, -0.140021, 0.277485, -0.389267, -0.334533, -0.303488, -0.500810, -0.433565, -0.495273, -0.206086, 0.170304, -0.197170, -0.047393, -0.133912, -0.508319, 0.005078, 0.354675, 0.073769, -0.325961, -0.385621, -0.330679, -0.008110, -0.296240, 0.129800, 0.015354, 0.286921, 0.216377, -0.160754, -0.074796, -0.276521, 0.185499, 0.509033, -0.020371, 0.244219, 0.119017, 0.111349, 0.177532, 0.451887, 0.037676, 0.112445, 0.330227, 0.007412, 0.448072, 0.126972, -0.143709, -0.047240, 0.001642, -0.282526, -0.286494, 0.350079, 0.391921, 0.283398, -0.076060, 0.148874, 0.008757, -0.070458, 0.440946, 0.370749, 0.392966, 0.217915, -0.413808, 0.295434, -0.449830, -0.044058, 0.362348, -0.287165, 0.405517, 0.382388, 0.014724, 0.127304, 0.257778, 0.313605, -0.526852, -0.379619, 0.425480, 0.306585, 0.230366, -0.050809, 0.171230, -0.343007, -0.222374, 0.384639, 0.029251, 0.295105, -0.144060, -0.239265, -0.193310, -0.121004, 0.042581, -0.401268, 0.216539, -0.266559, -0.324141, -0.068375, 0.428968, -0.205244, -0.297890, -0.498323, -0.432944, -0.504182, -0.020341, 0.128337, -0.056928, -0.441456, -0.448934, 0.109439, 0.178758, -0.288641, -0.040825, 0.187596, -0.299474, -0.267297, -0.419872, 0.398542, -0.388246, -0.206330, -0.138660, 0.019842, 0.537856, -0.447475, -0.159059, 0.046829, -0.488601, 0.003204, 0.332989, 0.181899, 0.047300, 0.073060, -0.072578, -0.039142, 0.261620, 0.347638, -0.014385, 0.297759, -0.268552, -0.018615, 0.068389, -0.282301, -0.254450, 0.078669, -0.194421, 0.081944, -0.090051, 0.374457, 0.219048, 0.148092, -0.227012, -0.069275, 0.136607, 0.431132, 0.216772, -0.236860, -0.297235, -0.104507, -0.552137, 0.395510, 0.562470, 0.308421, 0.080339, -0.279649, 0.674516, -0.262608, 0.343026, 0.299855, 0.039343, 0.147448, 0.292838, 0.122229, -0.288633, -0.553069, 0.167424, -0.130155, -0.094206, 0.088889, 0.538538, -0.128273, -0.280942, 0.251566, 0.389998, -0.169195, -0.206675, -0.007552, -0.125858, -0.425053, -0.154917, -0.502175, -0.086845, -0.132625, -0.065528, -0.232841, 0.215063, -0.016534, 0.470558, -0.249016, 0.065871, -0.096655, 0.461746, 0.525022, 0.034843, -0.032744, 0.084369, -0.051953, -0.275284, 0.064959, 0.359226, -0.413050, 0.341095, -0.402474, -0.171758, -0.459594, 0.386034, -0.090988, 0.197554, -0.499824, 0.112056, 0.147113, -0.201912, -0.569642, 0.369933, 0.002727, -0.173143, 0.785756, 0.025227, -0.212842, 0.336863, -0.036017, -0.327329, -0.387868, -0.425095, 0.455969, 0.327436, 0.441548, -0.319237, 0.310124, 0.215254, -0.193685, 0.132147, 0.206261, -0.275452, 0.385651, -0.361166, -0.388712, 0.343754, -0.264005, -0.001154, 0.078549, 0.186827, 0.147389, -0.067751, -0.437106, -0.207174, -0.512563, -0.092418, 0.474907, -0.484210, 0.474604, 0.413551, -0.154947, 0.317291, 0.113610, 0.226550, -0.294973, -0.667822, 0.372095, 0.144217, 0.024915, 0.112388, 0.314944, -0.293816, 0.080122, 0.378655, 0.183538, 0.173480, 0.444180, -0.335141, 0.236054, -0.081029, -0.395393, -0.053027, 0.474999, 0.373814, -0.269868, -0.074399, 0.033656, -0.122612, -0.217878, 0.234431, -0.257054, 0.622327, -0.216991, -0.109667, -0.530944, -0.476984, 0.465582, -0.381326, -0.024783, 0.388376, 0.099708, -0.066069, -0.131540, -0.532083, -0.504240, 0.033842, -0.307233, -0.363084, 0.266481, 0.145157, -0.100307, 0.216471, -0.111415, 0.467412, -0.263487, -0.139639, 0.072662, -0.159830, 0.346345, 0.265052, 0.044035, -0.201927, 0.112916, 0.233319, -0.029420, 0.242629, 0.173367, 0.294585, 0.356875, -0.416469, -0.192180, 0.226155, 0.123449, -0.509989, -0.086199, -0.272476, 0.052090, 0.282807, -0.327741, -0.395689, -0.222206, 0.425333, -0.107664, 0.186167, 0.276905, -0.022055, 0.240453, -0.266529, 0.036491, -0.263641, -0.158771, -0.205114, -0.135463, -0.119783, -0.088444, -0.271792, -0.297428, 0.271257, 0.275948, -0.087994, 0.406983, 0.134674, 0.465176, -0.222927, 0.313914, -0.392898, 0.086897, -0.196491, -0.211735, -0.304033, -0.222759, -0.018513, -0.093531, -0.375706, 0.432018, -0.387806, -0.006891, -0.254850, 0.510104, 0.158172, -0.084843, -0.182714, 0.459482, -0.010937, -0.177947, 0.378834, -0.389767, 0.090193, 0.487755, -0.177375, -0.398358, -0.285433, 0.148509, -0.205331, -0.541216, 0.013334, 0.131236, -0.268666, -0.500794, -0.110787, 0.175313, 0.315928, -0.436602, 0.273186, -0.437792, 0.124282, -0.233834, -0.532620, -0.110622, 0.214154, 0.173962, 0.538353, 0.189217, 0.182983, -0.259504, 0.015334, -0.371854, 0.352644, -0.034950, 0.222218, 0.032579, 0.474883, -0.143804, -0.313248, -0.370643, -0.450751, 0.012079, 0.102952, 0.485818, 0.084051, 0.281828, 0.129325, -0.358259, 0.469484, 0.123509, 0.239048, -0.456051, 0.332722, 0.284286, 0.313771, 0.260920, 0.112278, 0.067276, 0.347736, 0.252146, -0.296180, -0.427710, 0.554777, 0.387172, 0.138512, -0.312988, -0.132690, 0.003714, 0.194222, -0.058901, -0.086469, 0.308192, -0.425204, -0.384290, -0.191658, -0.057767, 0.251002, 0.344685, 0.509540, 0.212232, 0.286764, 0.012019, -0.296069, 0.197722, 0.466298, 0.367409, 0.320381, 0.268567, -0.043603, -0.093412, 0.325723, 0.098779, 0.124008, -0.020684, 0.006617, 0.466550, -0.437733, 0.284066, -0.040210, -0.316999, -0.197539, -0.334146, -0.343406, 0.027194, 0.121051, 0.459206, 0.493685, 0.515139, -0.462700, -0.007276, -0.317782, 0.086010, 0.346357, -0.026028, 0.064754, -0.423356, -0.090191, 0.473923, 0.235549, 0.055395, 0.004277, 0.312115, 0.144870, -0.187721, 0.151375, 0.269392, 0.429442, 0.381772, -0.486378, -0.258017, 0.016516, 0.086333, -0.079942, 0.256313, -0.111860, -0.270584, 0.042869, 0.389575, 0.333997, -0.387435, 0.487558, -0.069549, 0.247844, -0.182041, 0.250214, -0.459670, -0.325252, 0.254962, 0.075779, 0.019828, -0.320034, 0.503372, 0.191827, -0.163823, -0.379505, 0.282747, 0.225070, -0.475408, 0.243162, 0.286847, 0.135574, 0.214841, -0.085785, 0.215750, 0.721422, 0.251923, -0.151028, 0.005833, -0.339846, -0.116023, -0.485581, -0.347064, 0.331008, -0.323896, 0.002610, 0.183067, 0.260026, -0.296420, -0.293753, -0.150337, 0.169232, -0.099877, 0.388983, -0.343373, -0.479444, -0.041614, -0.396699, 0.272212, -0.097371, 0.190962, -0.460216, 0.012640, 0.416139, 0.115770, 0.074934, 0.472603, -0.109775, -0.003908, 0.423764, -0.483400, -0.234698, -0.153037, -0.043074, -0.113719, 0.276216, -0.294631, 0.255451, -0.171678, -0.464401, 0.048125, 0.121420, 0.367200, 0.383296, -0.152019, -0.332632, 0.403240, -0.281909, -0.146774, 0.080312, -0.117210, 0.163926, 0.122954, -0.370486, 0.445511, 0.204298, 0.275389, -0.298874, 0.306699, -0.220411, -0.502775, 0.033083, -0.417867, -0.094065, -0.281799, 0.134921, -0.261160, 0.194382, 0.141470, 0.121485, 0.459123, 0.206574, 0.296928, -0.211849, -0.253049, 0.246828, -0.253238, -0.187934, -0.109643, 0.267306, -0.112392, 0.127501, -0.064433, -0.405405, -0.026084, -0.238986, 0.353484, 0.360161, -0.082666, 0.162891, -0.281050, 0.608106, 0.277329, -0.277484, 0.034760, -0.194434, 0.426484, 0.096550, 0.255380, 0.235790, -0.201958, -0.360272, -0.141972, -0.094542, -0.082306, -0.179053, -0.492821, -0.363941, 0.191989, 0.298021, 0.121542, -0.211096, 0.506780, 0.026849, -0.355786, -0.243786, -0.301709, -0.223455, 0.517984, -0.324316, -0.342358, -0.344710, 0.253145, -0.243565, 0.087238, -0.015512, 0.301537, 0.516752, -0.212629, 0.325306, 0.308371, -0.158070, -0.011472, -0.224701, 0.313063, 0.484545, -0.098264, -0.286446, 0.089607, -0.097698, 0.081252, 0.441603, 0.039234, -0.054870, -0.312368, -0.380023, 0.307699, -0.085947, 0.050614, 0.193083, 0.128912, -0.293056, -0.108975, 0.403230, -0.039105, -0.323385, 0.345652, 0.089013, -0.255345, 0.081774, 0.483119, -0.427053, -0.153897, 0.104010, -0.396483, -0.095713, -0.275180, -0.525558, 0.294752, -0.176920, -0.385066, -0.236411, -0.187254, -0.021222, -0.205949, -0.333334, -0.272317, 0.383628, 0.240030, -0.046888, -0.136012, -0.102333, 0.077995, -0.162495, -0.060167, 0.258607, -0.114215, -0.371180, 0.069282, -0.161489, 0.139627, 0.299612, -0.378929, 0.308614, 0.189736, 0.075381, 0.174380, -0.337056, 0.396250, 0.352947, 0.254437, -0.076998, -0.474683, -0.230336, -0.265973, -0.285213, 0.427747, -0.325229, 0.165051, 0.034510, 0.435176, -0.369793, -0.071201, -0.467334, -0.275401, 0.047076, 0.309244, -0.291075, 0.221475, -0.280642, 0.520267, -0.435143, -0.062018, -0.246895, 0.250050, 0.210982, -0.140218, -0.239305, 0.321578, -0.376664, -0.435523, -0.304686, -0.296581, 0.134973, -0.079178, -0.361873, 0.333136, 0.481504, 0.223039, -0.491900, -0.357414, -0.113957, 0.197146, -0.401026, 0.173913, -0.273438, 0.078949, -0.230246, 0.259290, 0.331145, 0.040910, -0.485984, -0.243465, 0.076399, -0.272506, -0.152994, 0.143304, 0.261288, 0.398479, -0.339322, -0.193852, -0.118180, 0.173068, 0.109502, -0.300187, 0.492190, 0.093850, -0.287975, -0.352083, 0.217933, -0.201284, -0.480213, -0.211143, 0.150474, -0.089146, -0.129925, 0.366897, 0.364645, -0.358100, -0.444663, 0.083321, 0.072746, -0.308371, 0.190825, -0.257334, 0.440183, 0.039860, -0.427455, -0.235323, 0.042354, 0.257762, 0.360116, 0.241813, -0.463568, 0.499976, 0.043724, 0.427809, 0.158081, -0.400751, -0.244405, 0.407480, -0.423399, -0.370020, -0.162772, -0.194170, 0.365066, -0.352042, 0.027836, -0.344360, 0.396926, -0.058137, -0.357135, -0.206156, -0.195106, -0.161454, -0.450119, -0.208779, -0.340264, 0.298097, -0.130373, 0.128056, 0.475585, 0.389358, -0.095937, -0.248624, -0.313085, -0.019165, -0.013223, -0.547419, 0.164208, -0.186822, -0.047895, -0.346670, 0.346256, -0.004853, 0.341593, -0.012477, 0.243870, 0.210564, 0.136572, 0.365530, 0.204392, -0.487578, -0.357882, 0.042084, -0.317877, -0.063230, -0.344171, -0.228365, 0.102148, -0.186939, -0.261137, 0.032237, 0.390495, -0.455852, 0.488146, 0.499868, 0.338330, -0.355710, 0.247135, 0.101321, 0.372770, -0.294330, -0.125816, -0.139147, -0.014691, -0.259377, 0.411104, -0.188140, -0.123947, -0.096424, -0.320719, -0.490818, -0.317983, 0.080565, 0.255171, 0.161984, 0.361757, 0.467485, -0.396107, -0.415964, 0.368260, -0.193186, -0.454796, 0.197383, 0.149253, 0.284939, 0.124493, -0.430511, 0.242219, -0.243573, -0.076736, 0.132007, -0.434984, 0.085568, 0.396206, 0.342609, 0.382613, 0.390484, 0.270601, 0.308261, 0.186758, 0.476206, 0.375954, -0.404380, -0.410679, 0.253702, -0.258073, 0.264007, 0.289408, 0.269260, -0.269672, 0.305283, -0.254498, 0.359221, 0.197967, 0.255222, 0.416385, -0.402083, 0.486263, -0.218402, 0.179715, 0.085957, 0.040347, 0.491798, -0.248036, 0.334036, -0.414799, -0.469227, 0.065282, -0.198825, -0.248112, 0.082084, 0.220266, -0.491906, 0.282858, 0.018557, 0.272775, 0.186219, 0.496996, 0.242824, 0.399118, 0.413260, -0.375946, -0.198539, 0.500468, -0.275306, -0.189777, -0.316599, -0.014836, -0.500911, 0.317794, 0.302961, -0.062986, 0.360487, 0.166886, -0.304340, 0.068309, 0.084586, -0.235326, 0.166104, -0.433988, 0.121057, 0.431230, -0.152243, 0.177885, -0.050170, -0.095801, -0.440841, -0.459869, 0.352740, -0.008767, 0.071345, -0.022977, 0.097654, 0.223270, -0.122199, 0.131995, -0.339434, -0.409217, 0.173392, 0.102827, -0.095308, -0.203169, -0.137488, 0.252188, 0.416536, -0.016100, -0.424216, 0.145046, -0.042159, -0.138520, 0.208287, -0.095246, 0.426605, 0.293056, 0.449347, -0.149397, 0.294701, -0.190962, -0.362727, -0.300848, 0.465729, 0.034914, 0.254567, 0.052920, -0.156540, -0.203985, 0.456891, 0.110078, 0.380400, -0.016259, -0.143081, -0.198245, -0.021770, 0.034760, -0.354323, -0.105368, 0.037235, 0.234085, -0.220383, -0.006274, 0.087407, -0.462179, 0.407266, -0.066946, -0.458440, -0.298598, 0.273804, -0.238467, -0.151727, 0.263418, 0.061531, -0.007428, -0.030638, 0.376264, -0.471398, 0.314813, -0.176521, 0.337792, 0.303525, 0.468331, 0.060717, -0.092443, 0.270422, -0.179581, -0.262592, 0.496213, -0.356516, -0.074104, -0.275789, 0.083807, 0.409818, 0.021710, 0.455042, -0.243359, -0.031481, -0.388760, -0.357046, -0.013773, -0.008359, -0.381337, -0.243888, 0.478950, -0.497260, -0.343418, 0.010467, -0.355557, -0.022999, -0.194363, -0.325759, 0.156718, -0.421258, 0.136494, -0.274031, 0.249573, 0.370663, 0.129712, -0.366409, -0.090169, 0.275884, 0.179884, 0.335934, 0.367931, -0.395473, -0.048316, -0.331268, -0.416336, 0.256989, -0.090187, 0.498943, 0.270272, 0.130837, -0.185384, -0.089996, 0.029800, 0.293027, 0.231305, -0.359186, -0.406137, -0.132871, -0.446703, 0.233378, -0.326384, 0.227090, 0.111152, -0.454220, 0.082507, 0.330470, -0.264342, -0.394460, 0.167298, 0.479622, -0.430882, -0.276669, -0.026693, -0.432373, -0.481742, 0.244091, 0.411455, 0.461627, 0.226078, -0.011762, 0.322600, 0.261546, -0.077851, -0.108563, -0.102325, -0.184495, -0.278833, -0.464414, 0.057534, -0.107437, -0.339394, -0.021782, -0.101780, -0.247522, -0.031290, -0.425967, -0.476860, 0.133074, 0.192284, -0.287627, 0.045845, 0.354971, -0.418629, -0.305918, -0.131373, -0.176609, 0.417169, 0.084331, 0.089154, 0.033704, 0.316429, 0.345682, -0.364673, -0.465625, -0.283483, -0.298540, 0.422174, -0.310846, 0.069262, 0.121116, -0.172509, 0.207456, -0.466209, 0.373302, -0.179541, 0.004059, 0.387258, 0.243413, -0.071871, -0.467988, 0.349646, 0.070287, -0.337158, -0.181009, 0.390570, 0.204123, 0.464505, -0.405387, 0.319617, -0.131357, -0.424309, -0.044607, -0.237350, -0.373593, -0.287325, 0.334612, 0.159108, 0.152592, 0.234451, 0.052977, 0.176621, 0.221345, -0.401063, -0.307680, 0.056489, 0.229545, -0.261435, 0.310726, -0.047229, 0.106160, 0.061106, -0.365724, -0.062111, -0.258848, -0.002842, 0.385383, 0.110756, 0.373921, 0.057813, 0.093799, -0.153335, 0.486335, 0.297230, -0.033713, -0.256608, 0.143119, -0.491861, -0.266853, 0.232994, -0.126716, -0.271813, 0.135104, -0.135057, 0.315176, -0.126702, -0.274483, 0.404523, 0.361125, 0.176354, -0.242367, 0.207522, 0.462308, 0.217423, -0.225295, -0.411953, 0.047745, 0.186877, 0.319098, 0.162743, 0.281159, 0.215368, -0.107333, -0.466147, -0.191537, -0.453754, 0.195078, -0.474949, -0.368090, -0.293372, 0.158764, 0.267604, 0.173206, -0.114968, -0.499875, 0.459633, -0.247754, 0.421400, -0.146062, 0.225809, 0.063036, -0.248970, -0.371798, -0.076125, -0.038912, -0.498754, 0.406307, -0.150383, 0.256958, -0.301147, -0.312849, 0.043788, -0.057892, -0.453146, -0.350724, 0.169551, 0.458630, 0.212071, -0.173165, -0.045730, -0.406834, 0.165553, 0.255073, -0.298209, 0.164037, -0.482785, 0.120312, 0.236371, -0.339566, -0.057963, 0.008201, -0.485713, -0.218178, 0.005699, -0.453838, -0.193055, -0.021672, 0.188890, -0.004200, 0.090225, -0.143166, -0.431295, 0.006521, 0.054468, -0.197278, -0.031475, -0.112188, -0.098615, -0.364076, -0.240578, -0.491593, -0.176632, -0.421721, 0.282894, -0.295495, 0.213479, 0.298864, 0.260639, 0.129498, -0.303000, -0.492102, -0.306228, -0.314904, 0.223729, -0.426303, -0.238685, 0.304466, -0.234796, -0.167628, -0.283173, 0.445913, 0.380008, 0.266085, 0.273979, -0.479809, 0.496646, -0.408188, -0.073563, -0.347378, 0.044832, -0.147144, -0.430274, 0.037609, -0.337326, -0.290335, 0.226200, 0.078824, 0.380990, 0.241617, 0.271476, -0.319605, 0.324064, -0.113318, -0.059884, -0.078896, 0.488684, 0.437753, -0.343598, 0.464638, 0.115371, 0.254162, 0.325131, 0.266778, 0.253999, -0.173054, -0.020621, -0.374689, -0.051903, -0.351852, -0.338004, 0.332434, -0.116145, 0.346108, -0.445763, 0.256662, -0.170658, -0.162739, -0.141380, 0.344642, 0.449019, 0.453286, 0.223781, -0.227898, -0.305323, -0.398738, 0.200920, 0.482475, -0.479716, 0.163933, -0.090612, 0.211878, -0.030615, 0.349051, 0.281327, 0.374585, 0.483995, 0.396220, 0.261047, 0.265162, 0.217807, 0.255613, -0.326778, -0.432540, 0.113267, 0.087326, 0.062544, 0.263312, 0.374985, 0.444084, 0.432168, -0.482129, 0.284261, 0.323498, -0.333684, 0.237355, -0.125671, -0.333217, -0.374388, 0.096147, -0.040449, -0.259855, 0.282959, -0.156339, -0.004528, -0.373294, -0.026302, -0.366752, 0.402819, 0.107532, 0.296322, -0.156284, 0.091262, -0.215640, 0.267650, -0.268666, -0.296423, 0.252736, -0.121103, 0.166887, -0.301959, -0.297317, 0.117180, 0.055779, 0.154233, 0.315997, -0.235567, 0.152339, -0.484212, -0.236823, -0.448052, -0.004234, -0.385642, -0.446314, 0.233479, 0.289255, -0.036723, 0.078763, -0.445175, -0.444764, 0.259856, 0.193737, 0.230254, -0.409605, 0.408818, 0.080084, -0.010051, -0.352910, 0.203065, -0.382792, 0.355152, 0.255163, 0.011627, -0.325904, -0.433186, -0.137726, 0.322233, 0.391843, -0.428232, -0.189819, -0.488508, -0.353721, 0.262935, 0.033047, -0.073744, -0.273818, 0.368093, -0.129368, -0.200574, -0.486451, 0.211907, -0.052179, -0.186958, 0.142622, -0.234773, -0.341841, 0.143874, 0.028740, 0.456303, -0.022832, 0.255967, 0.019414, -0.137251, 0.341302, -0.349689, -0.089675, -0.130796, -0.085243, 0.472786, 0.178600, -0.234816, -0.125607, -0.126980, -0.073455, -0.265090, -0.387203, 0.124277, -0.090987, 0.431929, -0.396587, -0.467440, 0.149205, -0.134572, -0.475308, 0.397661, 0.385885, 0.361268, 0.003630, -0.140446, -0.070978, 0.333849, -0.072787, -0.380444, 0.317769, 0.043386, -0.393447, -0.249579, -0.211103, -0.208392, 0.183503, -0.188325, -0.382937, 0.152958, 0.093938, -0.084895, 0.386885, -0.378447, 0.414886, -0.135916, 0.348485, 0.284838, -0.456847, 0.038625, 0.221662, 0.384327, 0.362877, 0.445171, 0.379812, -0.249889, -0.217041, 0.151848, -0.347514, -0.266626, 0.078546, 0.397051, -0.444277, -0.107847, 0.112938, 0.062082, -0.003743, 0.148837, -0.134221, 0.446470, 0.419745, 0.157814, -0.228405, 0.049375, 0.057882, 0.353402, 0.123753, -0.309262, 0.419030, 0.324160, 0.380044, -0.271992, -0.002308, -0.381348, -0.385109, 0.102611, 0.130163, -0.476622, -0.290117, -0.208679, -0.334723, -0.027207, -0.482495, -0.053939, 0.433386, -0.314496, 0.133578, -0.174147, 0.128553, 0.313607, -0.256224, -0.059495, -0.356772, -0.351194, 0.146676, -0.333591, 0.158134, 0.071902, -0.199225, 0.024504, -0.205241, -0.109448, 0.477853, -0.512295, 0.221537, -0.511114, -0.195692, 0.195384, 0.366979, 0.277104, -0.123119, 0.353921, -0.519884, 0.359163, 0.042986, -0.018997, 0.485456, 0.102783, 0.106837, 0.255566, -0.357194, 0.297679, 0.474710, -0.069801, -0.252088, 0.350934, -0.131156, 0.341644, 0.337924, -0.490755, 0.454270, -0.295053, -0.393993, 0.112268, 0.197188, -0.015386, 0.480457, 0.175949, -0.436085, 0.013592, 0.000572, -0.374911, 0.170131, 0.136355, 0.045997, 0.438522, -0.145299, 0.432250, 0.049081, -0.344517, 0.025091, 0.422731, 0.015485, -0.155380, -0.435914, -0.347083, -0.162036, -0.333632, -0.089118, -0.284062, 0.025794, 0.116492, 0.168888, 0.020832, -0.028765, -0.190454, 0.054083, -0.423143, -0.089083, -0.390767, 0.354949, 0.362940, -0.233958, 0.535109, -0.284855, -0.344807, 0.168516, 0.455465, 0.243411, 0.561738, -0.293929, 0.112225, -0.439034, -0.119490, -0.388756, 0.361915, -0.061901, -0.254295, -0.332763, -0.217234, 0.154186, 0.418473, 0.123260, 0.279272, 0.462234, 0.323641, -0.421390, 0.193477, 0.140128, 0.059162, -0.257047, -0.298967, -0.407550, -0.286465, 0.214321, 0.221152, -0.226461, -0.198660, 0.239436, -0.288605, -0.536119, 0.085290, 0.503635, -0.334311, 0.547755, 0.211016, -0.132137, 0.513750, 0.503290, -0.457697, -0.136974, -0.083317, 0.145213, -0.240304, 0.539806, -0.410042, 0.142208, -0.292746, -0.153856, -0.261157, 0.040018, 0.477531, 0.464038, -0.052109, -0.196057, 0.144949, 0.470577, -0.074449, -0.066320, -0.095778, 0.168464, -0.136459, 0.397667, -0.067114, 0.214703, -0.352228, 0.133492, -0.376745, 0.088058, -0.080142, -0.283062, -0.201609, 0.540000, 0.146182, -0.312119, 0.424426, 0.075614, -0.233407, -0.357823, 0.397137, 0.009181, 0.107523, -0.531542, -0.402677, 0.027778, -0.293014, 0.262980, -0.206174, 0.300561, 0.197429, -0.016425, 0.472906, -0.249906, -0.256840, -0.220711, 0.106687, 0.335040, 0.246695, -0.144818, -0.364436, 0.414156, -0.302570, -0.343812, -0.428267, 0.111553, -0.231159, 0.236386, 0.474947, 0.036490, 0.146936, -0.015389, -0.361580, -0.345769, -0.134074, 0.388749, 0.089389, 0.437163, 0.168502, -0.441341, 0.247511, -0.474238, 0.074593, -0.152380, 0.360837, -0.594299, 0.001412, -0.343077, -0.031305, -0.435894, -0.093103, -0.340900, -0.520404, -0.028839, 0.393385, 0.082608, -0.457935, 0.207458, 0.203435, 0.137303, 0.472822, 0.525412, 0.473989, 0.154915, -0.328402, 0.334395, 0.662168, -0.060957, -0.084637, 0.254589, 0.480610, 0.107302, -0.174041, -0.171885, 0.344738, 0.091381, 0.450247, 0.303342, 0.188668, -0.386667, 0.373542, -0.077344, 0.248850, -0.210521, -0.103352, -0.185940, 0.354440, 0.005505, -0.256211, -0.402722, 0.525472, -0.302714, 0.143070, -0.281475, 0.079478, -0.132090, 0.428025, 0.597410, 0.355095, 0.434538, -0.211773, -0.263662, 0.338009, -0.366006, 0.004806, -0.236217, 0.134124, 0.365411, -0.207952, 0.090348, 0.214135, -0.442593, 0.194621, -0.516822, -0.439625, -0.169868, 0.221252, 0.186167, 0.471063, 0.261216, -0.241897, 0.285860, -0.321781, -0.054802, 0.201930, 0.137033, 0.412161, 0.359529, 0.424481, -0.599157, -0.107893, 0.015105, -0.142860, -0.025320, -0.166911, -0.581331, -0.584678, -0.295200, 0.117944, -0.240141, 0.123987, -0.426886, 0.345610, -0.311660, -0.173180, 0.411702, -0.286630, 0.187134, -0.185619, -0.389531, -0.221067, 0.347213, -0.301415, -0.139482, -0.040177, -0.007842, -0.056899, -0.348199, 0.200158, 0.052368, -0.386572, 0.079300, -0.080706, 0.254430, 0.479592, 0.024080, 0.026392, -0.363362, 0.486870, -0.048806, 0.257688, 0.623403, -0.168809, -0.522401, -0.462752, -0.252920, 0.228487, -0.638669, 0.026010, -0.074925, -0.302899, -0.130146, 0.146275, 0.248794, -0.048385, 0.036483, 0.233064, 0.314798, 0.110086, -0.167591, -0.275188, -0.159526, -0.055185, -0.639677, -0.131699, -0.296597, 0.433939, 0.613212, 0.468259, -0.387072, -0.377127, 0.082845, 0.152858, -0.510899, 0.244096, 0.341537, -0.074818, 0.014165, -0.429533, 0.355606, -0.034507, 0.213703, -0.168021, -0.251789, -0.356009, 0.320778, -0.072399, -0.378791, -0.335459, 0.103684, 0.036337, -0.293573, 0.334035, 0.332747, 0.439527, -0.108138, -0.058818, -0.050227, 0.566388, 0.369736, -0.263925, 0.057570, -0.009116, 0.004301, -0.000182, 0.220498, 0.228044, -0.286681, 0.053586, -0.234284, -0.668547, -0.267854, -0.115695, 0.258408, -0.266849, -0.078624, -0.004470, 0.040352, -0.239017, 0.018293, -0.033767, -0.154427, 0.264738, 0.475266, 0.061857, -0.150192, 0.242633, -0.407225, 0.449205, 0.192389, 0.032739, 0.531259, 0.325338, 0.200874, 0.402479, 0.422068, -0.189845, -0.076207, -0.232257, -0.412724, 0.273808, -0.170851, 0.222524, 0.384897, -0.362523, -0.052661, 0.144634, 0.037583, -0.368201, 0.215023, 0.221755, -0.119986, -0.316684, -0.373332, -0.569435, 0.070023, 0.259806, -0.309348, -0.399016, 0.001243, 0.125221, 0.266239, 0.046175, 0.257982, 0.175587, -0.119520, 0.167785, 0.216189, 0.107660, 0.061340, -0.264614, 0.046134, 0.249860, 0.064301, -0.175648, -0.009440, -0.169528, -0.147939, -0.305076, -0.242952, 0.405155, 0.414146, 0.049042, 0.335125, 0.072353, 0.028947, 0.190823, 0.435964, -0.182831, -0.378040, -0.523835, -0.674103, 0.091664, 0.323367, 0.117785, -0.038402, 0.376051, 0.415326, -0.017530, -0.048700, -0.166604, -0.055555, -0.034811, 0.154097, 0.274924, -0.557575, -0.155139, 0.384139, -0.145195, -0.563741, 0.162024, -0.465726, -0.013348, -0.157870, 0.087289, -0.100582, 0.170867, -0.089086, -0.325450, -0.178373, 0.117214, 0.246886, -0.521812, 0.066221, -0.106409, -0.270806, 0.457366, 0.091432, 0.426487, -0.120065, -0.117223, -0.039115, 0.292428, 0.096709, 0.213358, -0.043852, -0.026850, 0.184931, 0.293273, -0.132046, 0.178601, -0.131713, -0.119246, 0.514219, -0.125774, -0.022110, 0.229302, -0.041120, -0.226803, -0.359038, -0.174518, 0.286537, 0.246213, -0.521160, -0.107208, -0.292964, 0.181309, 0.297601, -0.509007, -0.191143, 0.233799, 0.473959, 0.126705, 0.583461, 0.222133, -0.100393, -0.055090, 0.088181, -0.094262, -0.449410, -0.069313, 0.181376, 0.245504, -0.047581, -0.385847, -0.211511, 0.064094, 0.564057, 0.164501, -0.315568, -0.035457, 0.043609, -0.336753, -0.344992, 0.322232, -0.274610, -0.300909, 0.106597, -0.151601, -0.218064, 0.431324, 0.046135, 0.002416, 0.025559, 0.144419, 0.147335, -0.269942, 0.186377, -0.306833, -0.631759, -0.345521, 0.292297, -0.080570, 0.313260, 0.141753, -0.245972, 0.101602, -0.436425, -0.177111, 0.295553, -0.236878, -0.130630, 0.070889, 0.220214, -0.141849, 0.421506, -0.032591, -0.459791, -0.085918, 0.067145, 0.471176, -0.474375, 0.174787, 0.043545, 0.457440, 0.330007, -0.234988, 0.257081, 0.198406, 0.253971, 0.032732, 0.181347, 0.444265, 0.254147, 0.242398, -0.279447, -0.638194, -0.400110, -0.045607, 0.164096, -0.390856, 0.061795, -0.468523, 0.056329, 0.434480, 0.129450, -0.248616, 0.256428, 0.065939, -0.320285, -0.430740, -0.012062, -0.075485, 0.093353, 0.081863, 0.429878, 0.198007, 0.136665, -0.582616, 0.378641, 0.235850, -0.341326, -0.169409, -0.105112, 0.061419, 0.526220, 0.457644, -0.275223, -0.127662, -0.342937, -0.211419, 0.044187, 0.312408, -0.120665, -0.095499, -0.443282, -0.622757, -0.021423, -0.215258, -0.423600, 0.362442, -0.051524, -0.071417, -0.321332, -0.185149, 0.027152, -0.137397, 0.143917, 0.515990, 0.362032, 0.298588, 0.279484, 0.382063, 0.171861, -0.286531, 0.290827, -0.222225, 0.358936, 0.302644, 0.300167, 0.199125, 0.067614, 0.332824, 0.054838, -0.103588, -0.353526, 0.070384, -0.240843, -0.229847, 0.175273, 0.482922, -0.580850, 0.174843, -0.191365, -0.371870, 0.149740, -0.084429, 0.367467, -0.143343, 0.144666, -0.367176, 0.154215, -0.352827, -0.004069, 0.456331, -0.240085, -0.284684, -0.676999, -0.146282, -0.106159, 0.272952, 0.076147, -0.084906, 0.220239, 0.343637, 0.294442, -0.016026, 0.190831, -0.470962, -0.282999, 0.004669, -0.158148, 0.097386, 0.242579, 0.382134, -0.682000, 0.188107, -0.272043, 0.173167, 0.032646, 0.254674, 0.142268, 0.586590, -0.290097, 0.397573, -0.467817, 0.059958, -0.042281, 0.389936, -0.129522, 0.273994, -0.319479, 0.396581, 0.119109, 0.329883, -0.038444, -0.265733, -0.076787, -0.602994, 0.258493, 0.080918, -0.014045, 0.398651, 0.545048, -0.107566, -0.067020, 0.175777, 0.402845, -0.325068, 0.314091, -0.185247, -0.246790, 0.089687, -0.464451, 0.155284, -0.096742, 0.247096, -0.026082, 0.295444, 0.366423, -0.332244, -0.438498, -0.083485, 0.413022, 0.193405, -0.485616, -0.273044, -0.244383, 0.474801, -0.260074, -0.089121, -0.171649, -0.345893, -0.285283, -0.513664, 0.412266, -0.235261, -0.146105, 0.206868, -0.275692, -0.569917, -0.487438, -0.461375, -0.327618, 0.200258, -0.314290, -0.313362, -0.395671, -0.308685, -0.113002, 0.375653, 0.443735, -0.067908, 0.036145, -0.086029, 0.362051, 0.212959, -0.568530, 0.310789, -0.445934, -0.210548, 0.047095, 0.387643, 0.449780, 0.508121, -0.114119, -0.457242, 0.264900, 0.362993, -0.152901, -0.038114, 0.038044, -0.200183, 0.280424, 0.403255, 0.489610, 0.207019, 0.495598, 0.305999, -0.211424, 0.035258, 0.238027, 0.531276, 0.078994, 0.078019, -0.152200, 0.347448, -0.308309, -0.060848, -0.107434, -0.218583, 0.070759, 0.160354, -0.219226, 0.464380, 0.053528, 0.294179, -0.084717, -0.405913, 0.245528, 0.413167, 0.264717, 0.390716, -0.452711, 0.197434, 0.361722, 0.020952, -0.299750, 0.100069, -0.385061, -0.316120, 0.066006, 0.020076, -0.459020, -0.068023, -0.343098, -0.048869, -0.126493, 0.509959, -0.122152, 0.036637, 0.049878, 0.105840, -0.121943, -0.152680, -0.048491, -0.087041, -0.293075, -0.015852, -0.396015, -0.285952, 0.262182, -0.008976, 0.027041, -0.532150, -0.609989, -0.231981, 0.480983, 0.337975, 0.215299, 0.015759, -0.341958, 0.170805, 0.310330, -0.162079, 0.234907, 0.512884, 0.032404, -0.111684, 0.156571, 0.544449, -0.295380, -0.422302, -0.256823, 0.041643, -0.029805, 0.133160, -0.082020, -0.398769, 0.479661, -0.311457, 0.104025, 0.271777, 0.267642, 0.084770, -0.176749, 0.451938, -0.270448, 0.266784, 0.342333, -0.100247, 0.527556, -0.430975, 0.388779, 0.392757, 0.207541, -0.173486, -0.459415, 0.025779, 0.320243, 0.073458, 0.380136, 0.098805, 0.566568, 0.172689, 0.356398, 0.231092, -0.510090, 0.532887, -0.171187, 0.242151, -0.244188, -0.172331, -0.162358, -0.214814, -0.045390, -0.289470, -0.183315, 0.207649, -0.040926, 0.119101, -0.125383, 0.569886, 0.222898, -0.119688, -0.294447, 0.159970, 0.456768, -0.110917, 0.130799, -0.065103, 0.102252, 0.148436, 0.352749, -0.006513, 0.306113, -0.216618, -0.141480, 0.054823, -0.222272, 0.535835, 0.306385, 0.307815, 0.457515, -0.455986, 0.095136, 0.342619, 0.065102, 0.389358, 0.477946, -0.027844, 0.039121, 0.414628, -0.121384, 0.353088, 0.472480, 0.172835, -0.242544, -0.107976, -0.206555, 0.108995, 0.206853, -0.184253, -0.139120, 0.305354, 0.101169, 0.161295, -0.142915, 0.522445, -0.509991, 0.483246, -0.060094, 0.049733, 0.118888, 0.099555, -0.121479, 0.084232, -0.246607, -0.410087, 0.308624, 0.459633, 0.149026, 0.036203, 0.197748, 0.450672, 0.125655, 0.154594, -0.294212, 0.273852, 0.297299, 0.210216, -0.072855, 0.345831, 0.220385, -0.227786, -0.074427, 0.174266, 0.054860, 0.444059, -0.093019, 0.193389, 0.276060, 0.054451, -0.234756, -0.315763, 0.106360, 0.098743, -0.373047, -0.020127, 0.035948, -0.208889, -0.330083, -0.526220, -0.050550, 0.148866, 0.036319, -0.373353, -0.008056, -0.348442, 0.343456, -0.254017, -0.322729, 0.505720, 0.405599, 0.276324, -0.346048, 0.265178, -0.360720, -0.337540, 0.369557, -0.407772, -0.245389, 0.244587, 0.353353, 0.329608, 0.401451, 0.300703, 0.030285, 0.107138, 0.510145, -0.373364, -0.097495, 0.261187, -0.391096, -0.362032, -0.147764, 0.357043, -0.005777, 0.056196, -0.365454, 0.503874, 0.229254, -0.027162, -0.002550, -0.458304, -0.070594, -0.339616, -0.186162, 0.403772, -0.385114, -0.116557, -0.172113, 0.171141, 0.175174, 0.269026, -0.400931, -0.465586, -0.534867, 0.343622, 0.251685, -0.271618, 0.260770, 0.097778, -0.160895, -0.274588, 0.022211, -0.197808, -0.025169, 0.478091, 0.464704, -0.298819, 0.448475, -0.286076, -0.107874, -0.027705, -0.274917, 0.511005, 0.202903, -0.337229, -0.337398, 0.261087, 0.304433, 0.306221, -0.241725, -0.284255, 0.549770, 0.059970, -0.091963, -0.078853, -0.348049, -0.161533, -0.448269, -0.556594, -0.105020, -0.480270, 0.070843, -0.421029, -0.455118, 0.041090, 0.387150, 0.351190, 0.364965, 0.283292, -0.334902, -0.245564, 0.430609, -0.109854, -0.329276, 0.052663, 0.212112, -0.237166, 0.371508, 0.412520, -0.124824, 0.442946, 0.337859, -0.264307, 0.354457, -0.417308, 0.016254, 0.428604, 0.168211, 0.362685, 0.228913, -0.483298, -0.062641, -0.075090, 0.042885, 0.205546, 0.491789, -0.059931, 0.243998, -0.438869, 0.182216, -0.284187, 0.107124, -0.523273, -0.333243, -0.152025, 0.004323, 0.376396, -0.102584, 0.447869, 0.335498, -0.325825, 0.316700, -0.117975, -0.209712, -0.472992, -0.357358, 0.400263, -0.148685, -0.313730, -0.412784, 0.091218, -0.424457, -0.542334, -0.169348, 0.178896, -0.376374, -0.361314, -0.082257, 0.240347, -0.023676, -0.311365, -0.017247, -0.072091, -0.015917, 0.304602, -0.106382, -0.162634, -0.164072, 0.113987, 0.297779, 0.407880, -0.177972, 0.317453, 0.219582, -0.258215, 0.156124, 0.129574, 0.003402, -0.383129, -0.419760, -0.166527, 0.005582, 0.469600, -0.167789, -0.044982, 0.179657, 0.191708, 0.254401, -0.296894, 0.481279, 0.497604, -0.078364, 0.468796, 0.377900, 0.446689, 0.081147, -0.304733, 0.188069, -0.187696, -0.156829, 0.488224, 0.496550, -0.249193, 0.039717, 0.315324, 0.003860, -0.126297, -0.107730, -0.090290, 0.281587, 0.258890, 0.495022, -0.159511, -0.003872, 0.328368, 0.293683, 0.025255, -0.439034, 0.332305, -0.270491, 0.482853, 0.226629, -0.155478, 0.008608, -0.299306, -0.148250, 0.193712, 0.000704, 0.154699, 0.015793, -0.319538, -0.228948, 0.167381, -0.124489, 0.105221, 0.461479, 0.302457, -0.432932, 0.270649, -0.053839, 0.184217, 0.361320, -0.243438, -0.193095, 0.473445, -0.137049, 0.120891, 0.397363, -0.262433, -0.473666, -0.054168, -0.347038, 0.316830, 0.292267, 0.159339, 0.067522, 0.109262, 0.020281, 0.451380, -0.110863, -0.416227, 0.335339, -0.466644, -0.354846, -0.489450, 0.498533, -0.391951, -0.265743, -0.168347, 0.272519, -0.447083, 0.394581, 0.179219, 0.474662, 0.132437, -0.445730, -0.148703, 0.197942, 0.340914, -0.250853, -0.427571, -0.153054, -0.080170, 0.101474, 0.395440, -0.070397, 0.337261, 0.321193, -0.218828, 0.155298, 0.055044, 0.291341, -0.434632, 0.283100, 0.294923, 0.289577, -0.093797, -0.028364, 0.091521, 0.319147, 0.090566, -0.281705, -0.096693, -0.361952, 0.183034, -0.256652, 0.323290, -0.250617, 0.131667, -0.297974, 0.212188, -0.203156, 0.305650, 0.316381, -0.357418, -0.007707, 0.417794, 0.297181, -0.104049, -0.294368, -0.197670, -0.330775, -0.260722, -0.411242, -0.417812, 0.449504, -0.156026, 0.442253, -0.257885, -0.222489, -0.229203, -0.145145, 0.098980, -0.029587, -0.287122, 0.389352, 0.421635, 0.493757, 0.176449, -0.378374, -0.205653, -0.271227, 0.013363, 0.295665, 0.244375, 0.387112, -0.115707, -0.058670, -0.400398, -0.424586, -0.165131, 0.132544, 0.315673, -0.315556, -0.281048, -0.141406, 0.194191, 0.152806, -0.029737, 0.488156, -0.247565, -0.071873, -0.091000, -0.370581, 0.492818, -0.381462, 0.208506, 0.129230, -0.341118, 0.492551, 0.430521, -0.115890, -0.245929, 0.167692, -0.114057, -0.152980, 0.258690, 0.257081, 0.222361, 0.489646, 0.190836, -0.011121, -0.483337, -0.421476, -0.301076, -0.019539, -0.354412, 0.372912, 0.010517, 0.477468, 0.370483, -0.395800, -0.189083, 0.033935, 0.434404, -0.320759, -0.357258, -0.014047, 0.281489, -0.335433, 0.190121, -0.209289, -0.006997, 0.458764, -0.307459, 0.440663, -0.184791, 0.495726, -0.051286, 0.477879, -0.338339, -0.074383, 0.449727, 0.026582, 0.007559, 0.034317, -0.098866, -0.324098, -0.421082, -0.397476, -0.216690, -0.259485, 0.072640, -0.115024, -0.163691, 0.008705, -0.150981, -0.379785, 0.279006, 0.197447, -0.115971, -0.180539, 0.467232, -0.365582, -0.171453, -0.499651, 0.152572, -0.222006, 0.304034, -0.218776, -0.123745, 0.499456, -0.038179, -0.360274, 0.422074, 0.259506, -0.407316, 0.431290, -0.045235, -0.101132, -0.298689, 0.210182, -0.334538, -0.270009, -0.398970, 0.014309, 0.094390, 0.482275, 0.258241, 0.021038, -0.184877, -0.043467, -0.303429, 0.325651, 0.480770, -0.037263, -0.260283, -0.478966, -0.416883, -0.077188, -0.476435, -0.053810, 0.345551, -0.133377, -0.093028, 0.433238, -0.363088, -0.387206, -0.053439, -0.173357, -0.269964, -0.283932, -0.247597, 0.245749, 0.125362, 0.132537, -0.104930, -0.474032, 0.265010, -0.268550, -0.007725, 0.190378, 0.085927, -0.195595, -0.390884, 0.060846, -0.009504, -0.265607, 0.198744, 0.299309, 0.372810, 0.292619, 0.208332, 0.290665, 0.056361, 0.127199, 0.023692, -0.402119, 0.475277, -0.389544, 0.228078, 0.433308, -0.104874, -0.288178, -0.107486, -0.436117, 0.218401, 0.149074, 0.435381, 0.062816, -0.466526, 0.488223, 0.155161, -0.359845, 0.047200, -0.113207, -0.316823, -0.225454, 0.379294, -0.056985, -0.387968, -0.190924, 0.476837, 0.462016, 0.033094, 0.482196, 0.154830, -0.151125, -0.067556, 0.447358, 0.351946, -0.100559, -0.194679, -0.025155, 0.279849, -0.025395, 0.304400, 0.217777, -0.482794, -0.402287, -0.054053, 0.261850, -0.065649, 0.234365, 0.297207, -0.410783, -0.274811, 0.205683, -0.004223, 0.263262, -0.250730, -0.390406, -0.134017, -0.300868, 0.352105, -0.002630, 0.096629, -0.321605, -0.294362, -0.199671, 0.452645, 0.339357, -0.346604, 0.424384, -0.387060, -0.240142, 0.203343, 0.283569, 0.410173, -0.019227, -0.111076, -0.444979, -0.399234, 0.540047, -0.512402, -0.147552, -0.249216, 0.234143, -0.505629, 0.149132, -0.369330, -0.401082, 0.359456, 0.368515, 0.166530, -0.359080, 0.112314, -0.001798, 0.243335, 0.275307, -0.208856, 0.260976, -0.427108, -0.134071, -0.298119, -0.165379, 0.231470, -0.402391, -0.406559, 0.352677, 0.452535, -0.406420, -0.479169, 0.220197, 0.423873, 0.053062, 0.385522, -0.507272, 0.491311, 0.188386, 0.373384, 0.009149, 0.114506, -0.511141, 0.224434, -0.463908, 0.048469, -0.446276, 0.361992, 0.215657, 0.450978, 0.494509, -0.338171, -0.327486, -0.369811, 0.503879, 0.092323, -0.022762, -0.356647, -0.083369, -0.214602, 0.092748, 0.381460, -0.098220, 0.364903, -0.185349, -0.462548, 0.380109, -0.096673, -0.139893, -0.607921, 0.491718, -0.220630, -0.309234, 0.362723, -0.176580, 0.384922, -0.077266, -0.304257, -0.181913, 0.386059, 0.421406, 0.276837, -0.275664, 0.199711, 0.297326, -0.034313, 0.067640, 0.331220, 0.217871, -0.172914, -0.524093, 0.024813, 0.293690, 0.100384, -0.112302, -0.460205, 0.318121, -0.137713, 0.014637, -0.116549, 0.324471, -0.073073, -0.347846, 0.307161, -0.301785, -0.432962, -0.205371, 0.026978, -0.103613, 0.104844, 0.277490, 0.185709, -0.147509, 0.382154, -0.101770, -0.411718, -0.091695, -0.400550, 0.191584, 0.093857, -0.100223, -0.130625, -0.372178, -0.002368, 0.168410, 0.373423, 0.131619, -0.008478, 0.088449, -0.457977, 0.562868, -0.335556, 0.129270, -0.350125, -0.284485, 0.379481, 0.223750, -0.389099, -0.330917, -0.443546, 0.257164, -0.042178, 0.309665, -0.332164, -0.148624, 0.477417, 0.296008, 0.410125, -0.383830, -0.454086, 0.492591, 0.357749, -0.239982, 0.211094, -0.370232, 0.415208, -0.152032, 0.021053, 0.084272, -0.124255, -0.260135, -0.428471, 0.053724, -0.273192, 0.334800, 0.250973, -0.242511, 0.260341, -0.062046, 0.332600, -0.083043, -0.236373, -0.334080, 0.155563, -0.501448, -0.155059, 0.214118, -0.338107, -0.227492, 0.308038, 0.229954, -0.439288, 0.380004, -0.440064, 0.144324, 0.156302, 0.430186, -0.471277, -0.116241, 0.298740, 0.232325, 0.039153, 0.200292, 0.357024, 0.208756, -0.192760, -0.048097, -0.493402, -0.168074, 0.050272, -0.438215, -0.448353, -0.081475, 0.410197, 0.047970, 0.023040, -0.186664, 0.273208, -0.127232, -0.245945, -0.371046, 0.233941, 0.376307, 0.228783, -0.147165, -0.207197, -0.155745, 0.489525, 0.122682, -0.208181, -0.054350, 0.037945, -0.315645, -0.188084, 0.250240, -0.335805, 0.030143, -0.451708, -0.740593, 0.438541, 0.237878, 0.269463, -0.008395, 0.036063, -0.576438, -0.374258, -0.429464, -0.257842, 0.264080, -0.288857, 0.391258, 0.043323, -0.379668, 0.397215, 0.074383, -0.044415, 0.515899, -0.129999, 0.025533, 0.221255, -0.284283, -0.109263, -0.177614, 0.165533, -0.590036, 0.246924, -0.328404, -0.229169, 0.192432, 0.262770, -0.328304, -0.175445, 0.491549, 0.106431, -0.308294, 